digraph Tree {
node [shape=box, fontname="helvetica"] ;
edge [fontname="helvetica"] ;
0 [label="nr.employed <= -0.956\ngini = 0.198\nsamples = 28831\nvalue = [25613, 3218]"] ;
1 [label="duration <= -0.4\ngini = 0.495\nsamples = 3491\nvalue = [1927, 1564]"] ;
0 -> 1 [labeldistance=2.5, labelangle=45, headlabel="True"] ;
2 [label="pdays <= -4.113\ngini = 0.256\nsamples = 1189\nvalue = [1010, 179]"] ;
1 -> 2 ;
3 [label="day_of_week <= -0.361\ngini = 0.476\nsamples = 179\nvalue = [109, 70]"] ;
2 -> 3 ;
4 [label="campaign <= -0.024\ngini = 0.354\nsamples = 74\nvalue = [57, 17]"] ;
3 -> 4 ;
5 [label="duration <= -0.691\ngini = 0.423\nsamples = 56\nvalue = [39, 17]"] ;
4 -> 5 ;
6 [label="gini = 0.0\nsamples = 8\nvalue = [8, 0]"] ;
5 -> 6 ;
7 [label="age <= -1.442\ngini = 0.457\nsamples = 48\nvalue = [31, 17]"] ;
5 -> 7 ;
8 [label="gini = 0.0\nsamples = 6\nvalue = [6, 0]"] ;
7 -> 8 ;
9 [label="cons.price.idx <= -0.215\ngini = 0.482\nsamples = 42\nvalue = [25, 17]"] ;
7 -> 9 ;
10 [label="previous <= 2.681\ngini = 0.5\nsamples = 32\nvalue = [16, 16]"] ;
9 -> 10 ;
11 [label="age <= -1.106\ngini = 0.463\nsamples = 22\nvalue = [14, 8]"] ;
10 -> 11 ;
12 [label="gini = 0.0\nsamples = 2\nvalue = [0, 2]"] ;
11 -> 12 ;
13 [label="housing <= -0.58\ngini = 0.42\nsamples = 20\nvalue = [14, 6]"] ;
11 -> 13 ;
14 [label="job <= -0.48\ngini = 0.48\nsamples = 5\nvalue = [2, 3]"] ;
13 -> 14 ;
15 [label="gini = 0.0\nsamples = 2\nvalue = [0, 2]"] ;
14 -> 15 ;
16 [label="job <= 0.911\ngini = 0.444\nsamples = 3\nvalue = [2, 1]"] ;
14 -> 16 ;
17 [label="gini = 0.0\nsamples = 2\nvalue = [2, 0]"] ;
16 -> 17 ;
18 [label="gini = 0.0\nsamples = 1\nvalue = [0, 1]"] ;
16 -> 18 ;
19 [label="euribor3m <= -2.172\ngini = 0.32\nsamples = 15\nvalue = [12, 3]"] ;
13 -> 19 ;
20 [label="gini = 0.0\nsamples = 9\nvalue = [9, 0]"] ;
19 -> 20 ;
21 [label="marital <= -1.105\ngini = 0.5\nsamples = 6\nvalue = [3, 3]"] ;
19 -> 21 ;
22 [label="gini = 0.0\nsamples = 2\nvalue = [2, 0]"] ;
21 -> 22 ;
23 [label="duration <= -0.452\ngini = 0.375\nsamples = 4\nvalue = [1, 3]"] ;
21 -> 23 ;
24 [label="gini = 0.0\nsamples = 3\nvalue = [0, 3]"] ;
23 -> 24 ;
25 [label="gini = 0.0\nsamples = 1\nvalue = [1, 0]"] ;
23 -> 25 ;
26 [label="age <= -1.202\ngini = 0.32\nsamples = 10\nvalue = [2, 8]"] ;
10 -> 26 ;
27 [label="housing <= -0.073\ngini = 0.444\nsamples = 3\nvalue = [2, 1]"] ;
26 -> 27 ;
28 [label="gini = 0.0\nsamples = 2\nvalue = [2, 0]"] ;
27 -> 28 ;
29 [label="gini = 0.0\nsamples = 1\nvalue = [0, 1]"] ;
27 -> 29 ;
30 [label="gini = 0.0\nsamples = 7\nvalue = [0, 7]"] ;
26 -> 30 ;
31 [label="duration <= -0.404\ngini = 0.18\nsamples = 10\nvalue = [9, 1]"] ;
9 -> 31 ;
32 [label="gini = 0.0\nsamples = 9\nvalue = [9, 0]"] ;
31 -> 32 ;
33 [label="gini = 0.0\nsamples = 1\nvalue = [0, 1]"] ;
31 -> 33 ;
34 [label="gini = 0.0\nsamples = 18\nvalue = [18, 0]"] ;
4 -> 34 ;
35 [label="duration <= -0.54\ngini = 0.5\nsamples = 105\nvalue = [52, 53]"] ;
3 -> 35 ;
36 [label="cons.conf.idx <= 2.035\ngini = 0.464\nsamples = 63\nvalue = [40, 23]"] ;
35 -> 36 ;
37 [label="euribor3m <= -1.691\ngini = 0.361\nsamples = 38\nvalue = [29, 9]"] ;
36 -> 37 ;
38 [label="duration <= -0.787\ngini = 0.211\nsamples = 25\nvalue = [22, 3]"] ;
37 -> 38 ;
39 [label="euribor3m <= -2.019\ngini = 0.444\nsamples = 3\nvalue = [1, 2]"] ;
38 -> 39 ;
40 [label="gini = 0.0\nsamples = 2\nvalue = [0, 2]"] ;
39 -> 40 ;
41 [label="gini = 0.0\nsamples = 1\nvalue = [1, 0]"] ;
39 -> 41 ;
42 [label="education <= -0.584\ngini = 0.087\nsamples = 22\nvalue = [21, 1]"] ;
38 -> 42 ;
43 [label="duration <= -0.756\ngini = 0.375\nsamples = 4\nvalue = [3, 1]"] ;
42 -> 43 ;
44 [label="gini = 0.0\nsamples = 1\nvalue = [0, 1]"] ;
43 -> 44 ;
45 [label="gini = 0.0\nsamples = 3\nvalue = [3, 0]"] ;
43 -> 45 ;
46 [label="gini = 0.0\nsamples = 18\nvalue = [18, 0]"] ;
42 -> 46 ;
47 [label="job <= -0.341\ngini = 0.497\nsamples = 13\nvalue = [7, 6]"] ;
37 -> 47 ;
48 [label="age <= 0.814\ngini = 0.408\nsamples = 7\nvalue = [2, 5]"] ;
47 -> 48 ;
49 [label="day_of_week <= 0.354\ngini = 0.278\nsamples = 6\nvalue = [1, 5]"] ;
48 -> 49 ;
50 [label="pdays <= -5.679\ngini = 0.5\nsamples = 2\nvalue = [1, 1]"] ;
49 -> 50 ;
51 [label="gini = 0.0\nsamples = 1\nvalue = [1, 0]"] ;
50 -> 51 ;
52 [label="gini = 0.0\nsamples = 1\nvalue = [0, 1]"] ;
50 -> 52 ;
53 [label="gini = 0.0\nsamples = 4\nvalue = [0, 4]"] ;
49 -> 53 ;
54 [label="gini = 0.0\nsamples = 1\nvalue = [1, 0]"] ;
48 -> 54 ;
55 [label="duration <= -0.572\ngini = 0.278\nsamples = 6\nvalue = [5, 1]"] ;
47 -> 55 ;
56 [label="gini = 0.0\nsamples = 5\nvalue = [5, 0]"] ;
55 -> 56 ;
57 [label="gini = 0.0\nsamples = 1\nvalue = [0, 1]"] ;
55 -> 57 ;
58 [label="campaign <= 0.338\ngini = 0.493\nsamples = 25\nvalue = [11, 14]"] ;
36 -> 58 ;
59 [label="age <= 2.733\ngini = 0.463\nsamples = 22\nvalue = [8, 14]"] ;
58 -> 59 ;
60 [label="job <= 1.607\ngini = 0.388\nsamples = 19\nvalue = [5, 14]"] ;
59 -> 60 ;
61 [label="age <= -0.29\ngini = 0.346\nsamples = 18\nvalue = [4, 14]"] ;
60 -> 61 ;
62 [label="age <= -0.53\ngini = 0.494\nsamples = 9\nvalue = [4, 5]"] ;
61 -> 62 ;
63 [label="cons.conf.idx <= 2.369\ngini = 0.278\nsamples = 6\nvalue = [1, 5]"] ;
62 -> 63 ;
64 [label="gini = 0.0\nsamples = 5\nvalue = [0, 5]"] ;
63 -> 64 ;
65 [label="gini = 0.0\nsamples = 1\nvalue = [1, 0]"] ;
63 -> 65 ;
66 [label="gini = 0.0\nsamples = 3\nvalue = [3, 0]"] ;
62 -> 66 ;
67 [label="gini = 0.0\nsamples = 9\nvalue = [0, 9]"] ;
61 -> 67 ;
68 [label="gini = 0.0\nsamples = 1\nvalue = [1, 0]"] ;
60 -> 68 ;
69 [label="gini = 0.0\nsamples = 3\nvalue = [3, 0]"] ;
59 -> 69 ;
70 [label="gini = 0.0\nsamples = 3\nvalue = [3, 0]"] ;
58 -> 70 ;
71 [label="euribor3m <= -1.145\ngini = 0.408\nsamples = 42\nvalue = [12, 30]"] ;
35 -> 71 ;
72 [label="month <= 0.116\ngini = 0.375\nsamples = 40\nvalue = [10, 30]"] ;
71 -> 72 ;
73 [label="marital <= -1.105\ngini = 0.488\nsamples = 19\nvalue = [8, 11]"] ;
72 -> 73 ;
74 [label="gini = 0.0\nsamples = 4\nvalue = [0, 4]"] ;
73 -> 74 ;
75 [label="duration <= -0.496\ngini = 0.498\nsamples = 15\nvalue = [8, 7]"] ;
73 -> 75 ;
76 [label="gini = 0.0\nsamples = 3\nvalue = [3, 0]"] ;
75 -> 76 ;
77 [label="previous <= 2.681\ngini = 0.486\nsamples = 12\nvalue = [5, 7]"] ;
75 -> 77 ;
78 [label="housing <= -0.073\ngini = 0.32\nsamples = 5\nvalue = [4, 1]"] ;
77 -> 78 ;
79 [label="gini = 0.0\nsamples = 1\nvalue = [0, 1]"] ;
78 -> 79 ;
80 [label="gini = 0.0\nsamples = 4\nvalue = [4, 0]"] ;
78 -> 80 ;
81 [label="job <= -0.341\ngini = 0.245\nsamples = 7\nvalue = [1, 6]"] ;
77 -> 81 ;
82 [label="gini = 0.0\nsamples = 1\nvalue = [1, 0]"] ;
81 -> 82 ;
83 [label="gini = 0.0\nsamples = 6\nvalue = [0, 6]"] ;
81 -> 83 ;
84 [label="age <= 0.478\ngini = 0.172\nsamples = 21\nvalue = [2, 19]"] ;
72 -> 84 ;
85 [label="gini = 0.0\nsamples = 13\nvalue = [0, 13]"] ;
84 -> 85 ;
86 [label="age <= 1.437\ngini = 0.375\nsamples = 8\nvalue = [2, 6]"] ;
84 -> 86 ;
87 [label="gini = 0.0\nsamples = 2\nvalue = [2, 0]"] ;
86 -> 87 ;
88 [label="gini = 0.0\nsamples = 6\nvalue = [0, 6]"] ;
86 -> 88 ;
89 [label="gini = 0.0\nsamples = 2\nvalue = [2, 0]"] ;
71 -> 89 ;
90 [label="duration <= -0.672\ngini = 0.193\nsamples = 1010\nvalue = [901, 109]"] ;
2 -> 90 ;
91 [label="duration <= -0.743\ngini = 0.058\nsamples = 405\nvalue = [393, 12]"] ;
90 -> 91 ;
92 [label="pdays <= -3.07\ngini = 0.015\nsamples = 265\nvalue = [263, 2]"] ;
91 -> 92 ;
93 [label="euribor3m <= -2.907\ngini = 0.5\nsamples = 2\nvalue = [1, 1]"] ;
92 -> 93 ;
94 [label="gini = 0.0\nsamples = 1\nvalue = [0, 1]"] ;
93 -> 94 ;
95 [label="gini = 0.0\nsamples = 1\nvalue = [1, 0]"] ;
93 -> 95 ;
96 [label="euribor3m <= -0.767\ngini = 0.008\nsamples = 263\nvalue = [262, 1]"] ;
92 -> 96 ;
97 [label="gini = 0.0\nsamples = 252\nvalue = [252, 0]"] ;
96 -> 97 ;
98 [label="duration <= -0.783\ngini = 0.165\nsamples = 11\nvalue = [10, 1]"] ;
96 -> 98 ;
99 [label="gini = 0.0\nsamples = 8\nvalue = [8, 0]"] ;
98 -> 99 ;
100 [label="education <= 0.352\ngini = 0.444\nsamples = 3\nvalue = [2, 1]"] ;
98 -> 100 ;
101 [label="gini = 0.0\nsamples = 2\nvalue = [2, 0]"] ;
100 -> 101 ;
102 [label="gini = 0.0\nsamples = 1\nvalue = [0, 1]"] ;
100 -> 102 ;
103 [label="duration <= -0.701\ngini = 0.133\nsamples = 140\nvalue = [130, 10]"] ;
91 -> 103 ;
104 [label="euribor3m <= -1.902\ngini = 0.206\nsamples = 77\nvalue = [68, 9]"] ;
103 -> 104 ;
105 [label="euribor3m <= -2.725\ngini = 0.295\nsamples = 50\nvalue = [41, 9]"] ;
104 -> 105 ;
106 [label="loan <= 0.929\ngini = 0.1\nsamples = 19\nvalue = [18, 1]"] ;
105 -> 106 ;
107 [label="gini = 0.0\nsamples = 16\nvalue = [16, 0]"] ;
106 -> 107 ;
108 [label="campaign <= -0.387\ngini = 0.444\nsamples = 3\nvalue = [2, 1]"] ;
106 -> 108 ;
109 [label="gini = 0.0\nsamples = 1\nvalue = [0, 1]"] ;
108 -> 109 ;
110 [label="gini = 0.0\nsamples = 2\nvalue = [2, 0]"] ;
108 -> 110 ;
111 [label="duration <= -0.735\ngini = 0.383\nsamples = 31\nvalue = [23, 8]"] ;
105 -> 111 ;
112 [label="age <= -0.05\ngini = 0.49\nsamples = 7\nvalue = [3, 4]"] ;
111 -> 112 ;
113 [label="euribor3m <= -2.004\ngini = 0.32\nsamples = 5\nvalue = [1, 4]"] ;
112 -> 113 ;
114 [label="gini = 0.0\nsamples = 3\nvalue = [0, 3]"] ;
113 -> 114 ;
115 [label="education <= 0.118\ngini = 0.5\nsamples = 2\nvalue = [1, 1]"] ;
113 -> 115 ;
116 [label="gini = 0.0\nsamples = 1\nvalue = [0, 1]"] ;
115 -> 116 ;
117 [label="gini = 0.0\nsamples = 1\nvalue = [1, 0]"] ;
115 -> 117 ;
118 [label="gini = 0.0\nsamples = 2\nvalue = [2, 0]"] ;
112 -> 118 ;
119 [label="duration <= -0.706\ngini = 0.278\nsamples = 24\nvalue = [20, 4]"] ;
111 -> 119 ;
120 [label="month <= 1.84\ngini = 0.172\nsamples = 21\nvalue = [19, 2]"] ;
119 -> 120 ;
121 [label="gini = 0.0\nsamples = 13\nvalue = [13, 0]"] ;
120 -> 121 ;
122 [label="education <= -0.818\ngini = 0.375\nsamples = 8\nvalue = [6, 2]"] ;
120 -> 122 ;
123 [label="gini = 0.0\nsamples = 1\nvalue = [0, 1]"] ;
122 -> 123 ;
124 [label="age <= 1.293\ngini = 0.245\nsamples = 7\nvalue = [6, 1]"] ;
122 -> 124 ;
125 [label="gini = 0.0\nsamples = 6\nvalue = [6, 0]"] ;
124 -> 125 ;
126 [label="gini = 0.0\nsamples = 1\nvalue = [0, 1]"] ;
124 -> 126 ;
127 [label="job <= -0.341\ngini = 0.444\nsamples = 3\nvalue = [1, 2]"] ;
119 -> 127 ;
128 [label="gini = 0.0\nsamples = 1\nvalue = [1, 0]"] ;
127 -> 128 ;
129 [label="gini = 0.0\nsamples = 2\nvalue = [0, 2]"] ;
127 -> 129 ;
130 [label="gini = 0.0\nsamples = 27\nvalue = [27, 0]"] ;
104 -> 130 ;
131 [label="euribor3m <= -0.825\ngini = 0.031\nsamples = 63\nvalue = [62, 1]"] ;
103 -> 131 ;
132 [label="gini = 0.0\nsamples = 51\nvalue = [51, 0]"] ;
131 -> 132 ;
133 [label="job <= -0.897\ngini = 0.153\nsamples = 12\nvalue = [11, 1]"] ;
131 -> 133 ;
134 [label="duration <= -0.691\ngini = 0.375\nsamples = 4\nvalue = [3, 1]"] ;
133 -> 134 ;
135 [label="gini = 0.0\nsamples = 1\nvalue = [0, 1]"] ;
134 -> 135 ;
136 [label="gini = 0.0\nsamples = 3\nvalue = [3, 0]"] ;
134 -> 136 ;
137 [label="gini = 0.0\nsamples = 8\nvalue = [8, 0]"] ;
133 -> 137 ;
138 [label="euribor3m <= -2.754\ngini = 0.269\nsamples = 605\nvalue = [508, 97]"] ;
90 -> 138 ;
139 [label="campaign <= -0.024\ngini = 0.37\nsamples = 192\nvalue = [145, 47]"] ;
138 -> 139 ;
140 [label="cons.price.idx <= -0.215\ngini = 0.415\nsamples = 150\nvalue = [106, 44]"] ;
139 -> 140 ;
141 [label="job <= 1.05\ngini = 0.461\nsamples = 108\nvalue = [69, 39]"] ;
140 -> 141 ;
142 [label="housing <= 0.435\ngini = 0.404\nsamples = 82\nvalue = [59, 23]"] ;
141 -> 142 ;
143 [label="age <= -0.77\ngini = 0.224\nsamples = 39\nvalue = [34, 5]"] ;
142 -> 143 ;
144 [label="emp.var.rate <= -1.819\ngini = 0.463\nsamples = 11\nvalue = [7, 4]"] ;
143 -> 144 ;
145 [label="duration <= -0.628\ngini = 0.5\nsamples = 8\nvalue = [4, 4]"] ;
144 -> 145 ;
146 [label="gini = 0.0\nsamples = 2\nvalue = [2, 0]"] ;
145 -> 146 ;
147 [label="duration <= -0.586\ngini = 0.444\nsamples = 6\nvalue = [2, 4]"] ;
145 -> 147 ;
148 [label="gini = 0.0\nsamples = 3\nvalue = [0, 3]"] ;
147 -> 148 ;
149 [label="age <= -0.914\ngini = 0.444\nsamples = 3\nvalue = [2, 1]"] ;
147 -> 149 ;
150 [label="gini = 0.0\nsamples = 2\nvalue = [2, 0]"] ;
149 -> 150 ;
151 [label="gini = 0.0\nsamples = 1\nvalue = [0, 1]"] ;
149 -> 151 ;
152 [label="gini = 0.0\nsamples = 3\nvalue = [3, 0]"] ;
144 -> 152 ;
153 [label="education <= -1.52\ngini = 0.069\nsamples = 28\nvalue = [27, 1]"] ;
143 -> 153 ;
154 [label="marital <= -1.105\ngini = 0.375\nsamples = 4\nvalue = [3, 1]"] ;
153 -> 154 ;
155 [label="previous <= 0.661\ngini = 0.5\nsamples = 2\nvalue = [1, 1]"] ;
154 -> 155 ;
156 [label="gini = 0.0\nsamples = 1\nvalue = [0, 1]"] ;
155 -> 156 ;
157 [label="gini = 0.0\nsamples = 1\nvalue = [1, 0]"] ;
155 -> 157 ;
158 [label="gini = 0.0\nsamples = 2\nvalue = [2, 0]"] ;
154 -> 158 ;
159 [label="gini = 0.0\nsamples = 24\nvalue = [24, 0]"] ;
153 -> 159 ;
160 [label="duration <= -0.473\ngini = 0.487\nsamples = 43\nvalue = [25, 18]"] ;
142 -> 160 ;
161 [label="age <= 3.021\ngini = 0.5\nsamples = 34\nvalue = [17, 17]"] ;
160 -> 161 ;
162 [label="age <= 0.046\ngini = 0.491\nsamples = 30\nvalue = [13, 17]"] ;
161 -> 162 ;
163 [label="euribor3m <= -3.308\ngini = 0.469\nsamples = 16\nvalue = [10, 6]"] ;
162 -> 163 ;
164 [label="gini = 0.0\nsamples = 2\nvalue = [0, 2]"] ;
163 -> 164 ;
165 [label="marital <= 0.537\ngini = 0.408\nsamples = 14\nvalue = [10, 4]"] ;
163 -> 165 ;
166 [label="gini = 0.0\nsamples = 6\nvalue = [6, 0]"] ;
165 -> 166 ;
167 [label="day_of_week <= -1.077\ngini = 0.5\nsamples = 8\nvalue = [4, 4]"] ;
165 -> 167 ;
168 [label="gini = 0.0\nsamples = 2\nvalue = [0, 2]"] ;
167 -> 168 ;
169 [label="euribor3m <= -2.82\ngini = 0.444\nsamples = 6\nvalue = [4, 2]"] ;
167 -> 169 ;
170 [label="previous <= 0.661\ngini = 0.32\nsamples = 5\nvalue = [4, 1]"] ;
169 -> 170 ;
171 [label="gini = 0.0\nsamples = 4\nvalue = [4, 0]"] ;
170 -> 171 ;
172 [label="gini = 0.0\nsamples = 1\nvalue = [0, 1]"] ;
170 -> 172 ;
173 [label="gini = 0.0\nsamples = 1\nvalue = [0, 1]"] ;
169 -> 173 ;
174 [label="duration <= -0.658\ngini = 0.337\nsamples = 14\nvalue = [3, 11]"] ;
162 -> 174 ;
175 [label="gini = 0.0\nsamples = 1\nvalue = [1, 0]"] ;
174 -> 175 ;
176 [label="loan <= 0.929\ngini = 0.26\nsamples = 13\nvalue = [2, 11]"] ;
174 -> 176 ;
177 [label="education <= 0.82\ngini = 0.153\nsamples = 12\nvalue = [1, 11]"] ;
176 -> 177 ;
178 [label="gini = 0.0\nsamples = 10\nvalue = [0, 10]"] ;
177 -> 178 ;
179 [label="cons.conf.idx <= 2.285\ngini = 0.5\nsamples = 2\nvalue = [1, 1]"] ;
177 -> 179 ;
180 [label="gini = 0.0\nsamples = 1\nvalue = [0, 1]"] ;
179 -> 180 ;
181 [label="gini = 0.0\nsamples = 1\nvalue = [1, 0]"] ;
179 -> 181 ;
182 [label="gini = 0.0\nsamples = 1\nvalue = [1, 0]"] ;
176 -> 182 ;
183 [label="gini = 0.0\nsamples = 4\nvalue = [4, 0]"] ;
161 -> 183 ;
184 [label="euribor3m <= -3.694\ngini = 0.198\nsamples = 9\nvalue = [8, 1]"] ;
160 -> 184 ;
185 [label="gini = 0.0\nsamples = 1\nvalue = [0, 1]"] ;
184 -> 185 ;
186 [label="gini = 0.0\nsamples = 8\nvalue = [8, 0]"] ;
184 -> 186 ;
187 [label="duration <= -0.419\ngini = 0.473\nsamples = 26\nvalue = [10, 16]"] ;
141 -> 187 ;
188 [label="euribor3m <= -3.046\ngini = 0.423\nsamples = 23\nvalue = [7, 16]"] ;
187 -> 188 ;
189 [label="euribor3m <= -3.526\ngini = 0.469\nsamples = 8\nvalue = [5, 3]"] ;
188 -> 189 ;
190 [label="gini = 0.0\nsamples = 2\nvalue = [0, 2]"] ;
189 -> 190 ;
191 [label="day_of_week <= 1.07\ngini = 0.278\nsamples = 6\nvalue = [5, 1]"] ;
189 -> 191 ;
192 [label="gini = 0.0\nsamples = 5\nvalue = [5, 0]"] ;
191 -> 192 ;
193 [label="gini = 0.0\nsamples = 1\nvalue = [0, 1]"] ;
191 -> 193 ;
194 [label="marital <= -1.105\ngini = 0.231\nsamples = 15\nvalue = [2, 13]"] ;
188 -> 194 ;
195 [label="gini = 0.0\nsamples = 1\nvalue = [1, 0]"] ;
194 -> 195 ;
196 [label="education <= 1.288\ngini = 0.133\nsamples = 14\nvalue = [1, 13]"] ;
194 -> 196 ;
197 [label="gini = 0.0\nsamples = 13\nvalue = [0, 13]"] ;
196 -> 197 ;
198 [label="gini = 0.0\nsamples = 1\nvalue = [1, 0]"] ;
196 -> 198 ;
199 [label="gini = 0.0\nsamples = 3\nvalue = [3, 0]"] ;
187 -> 199 ;
200 [label="marital <= -1.105\ngini = 0.21\nsamples = 42\nvalue = [37, 5]"] ;
140 -> 200 ;
201 [label="gini = 0.0\nsamples = 2\nvalue = [0, 2]"] ;
200 -> 201 ;
202 [label="age <= 0.43\ngini = 0.139\nsamples = 40\nvalue = [37, 3]"] ;
200 -> 202 ;
203 [label="gini = 0.0\nsamples = 33\nvalue = [33, 0]"] ;
202 -> 203 ;
204 [label="duration <= -0.524\ngini = 0.49\nsamples = 7\nvalue = [4, 3]"] ;
202 -> 204 ;
205 [label="gini = 0.0\nsamples = 3\nvalue = [3, 0]"] ;
204 -> 205 ;
206 [label="duration <= -0.415\ngini = 0.375\nsamples = 4\nvalue = [1, 3]"] ;
204 -> 206 ;
207 [label="gini = 0.0\nsamples = 3\nvalue = [0, 3]"] ;
206 -> 207 ;
208 [label="gini = 0.0\nsamples = 1\nvalue = [1, 0]"] ;
206 -> 208 ;
209 [label="euribor3m <= -3.65\ngini = 0.133\nsamples = 42\nvalue = [39, 3]"] ;
139 -> 209 ;
210 [label="gini = 0.0\nsamples = 1\nvalue = [0, 1]"] ;
209 -> 210 ;
211 [label="age <= -1.634\ngini = 0.093\nsamples = 41\nvalue = [39, 2]"] ;
209 -> 211 ;
212 [label="gini = 0.0\nsamples = 1\nvalue = [0, 1]"] ;
211 -> 212 ;
213 [label="education <= 1.288\ngini = 0.049\nsamples = 40\nvalue = [39, 1]"] ;
211 -> 213 ;
214 [label="gini = 0.0\nsamples = 37\nvalue = [37, 0]"] ;
213 -> 214 ;
215 [label="month <= -0.1\ngini = 0.444\nsamples = 3\nvalue = [2, 1]"] ;
213 -> 215 ;
216 [label="gini = 0.0\nsamples = 1\nvalue = [0, 1]"] ;
215 -> 216 ;
217 [label="gini = 0.0\nsamples = 2\nvalue = [2, 0]"] ;
215 -> 217 ;
218 [label="duration <= -0.509\ngini = 0.213\nsamples = 413\nvalue = [363, 50]"] ;
138 -> 218 ;
219 [label="campaign <= 1.063\ngini = 0.148\nsamples = 249\nvalue = [229, 20]"] ;
218 -> 219 ;
220 [label="education <= -1.052\ngini = 0.131\nsamples = 241\nvalue = [224, 17]"] ;
219 -> 220 ;
221 [label="nr.employed <= -1.567\ngini = 0.363\nsamples = 21\nvalue = [16, 5]"] ;
220 -> 221 ;
222 [label="gini = 0.0\nsamples = 12\nvalue = [12, 0]"] ;
221 -> 222 ;
223 [label="housing <= 0.435\ngini = 0.494\nsamples = 9\nvalue = [4, 5]"] ;
221 -> 223 ;
224 [label="gini = 0.0\nsamples = 3\nvalue = [3, 0]"] ;
223 -> 224 ;
225 [label="loan <= 0.929\ngini = 0.278\nsamples = 6\nvalue = [1, 5]"] ;
223 -> 225 ;
226 [label="gini = 0.0\nsamples = 5\nvalue = [0, 5]"] ;
225 -> 226 ;
227 [label="gini = 0.0\nsamples = 1\nvalue = [1, 0]"] ;
225 -> 227 ;
228 [label="default <= 0.716\ngini = 0.103\nsamples = 220\nvalue = [208, 12]"] ;
220 -> 228 ;
229 [label="campaign <= -0.387\ngini = 0.096\nsamples = 218\nvalue = [207, 11]"] ;
228 -> 229 ;
230 [label="euribor3m <= -0.767\ngini = 0.033\nsamples = 120\nvalue = [118, 2]"] ;
229 -> 230 ;
231 [label="age <= 2.061\ngini = 0.018\nsamples = 112\nvalue = [111, 1]"] ;
230 -> 231 ;
232 [label="gini = 0.0\nsamples = 103\nvalue = [103, 0]"] ;
231 -> 232 ;
233 [label="job <= -0.48\ngini = 0.198\nsamples = 9\nvalue = [8, 1]"] ;
231 -> 233 ;
234 [label="gini = 0.0\nsamples = 1\nvalue = [0, 1]"] ;
233 -> 234 ;
235 [label="gini = 0.0\nsamples = 8\nvalue = [8, 0]"] ;
233 -> 235 ;
236 [label="age <= -0.914\ngini = 0.219\nsamples = 8\nvalue = [7, 1]"] ;
230 -> 236 ;
237 [label="duration <= -0.601\ngini = 0.5\nsamples = 2\nvalue = [1, 1]"] ;
236 -> 237 ;
238 [label="gini = 0.0\nsamples = 1\nvalue = [1, 0]"] ;
237 -> 238 ;
239 [label="gini = 0.0\nsamples = 1\nvalue = [0, 1]"] ;
237 -> 239 ;
240 [label="gini = 0.0\nsamples = 6\nvalue = [6, 0]"] ;
236 -> 240 ;
241 [label="day_of_week <= 1.07\ngini = 0.167\nsamples = 98\nvalue = [89, 9]"] ;
229 -> 241 ;
242 [label="day_of_week <= -1.077\ngini = 0.127\nsamples = 88\nvalue = [82, 6]"] ;
241 -> 242 ;
243 [label="duration <= -0.63\ngini = 0.32\nsamples = 20\nvalue = [16, 4]"] ;
242 -> 243 ;
244 [label="duration <= -0.658\ngini = 0.49\nsamples = 7\nvalue = [3, 4]"] ;
243 -> 244 ;
245 [label="gini = 0.0\nsamples = 2\nvalue = [2, 0]"] ;
244 -> 245 ;
246 [label="contact <= 0.28\ngini = 0.32\nsamples = 5\nvalue = [1, 4]"] ;
244 -> 246 ;
247 [label="gini = 0.0\nsamples = 4\nvalue = [0, 4]"] ;
246 -> 247 ;
248 [label="gini = 0.0\nsamples = 1\nvalue = [1, 0]"] ;
246 -> 248 ;
249 [label="gini = 0.0\nsamples = 13\nvalue = [13, 0]"] ;
243 -> 249 ;
250 [label="education <= 1.288\ngini = 0.057\nsamples = 68\nvalue = [66, 2]"] ;
242 -> 250 ;
251 [label="euribor3m <= -0.832\ngini = 0.033\nsamples = 60\nvalue = [59, 1]"] ;
250 -> 251 ;
252 [label="gini = 0.0\nsamples = 48\nvalue = [48, 0]"] ;
251 -> 252 ;
253 [label="euribor3m <= -0.788\ngini = 0.153\nsamples = 12\nvalue = [11, 1]"] ;
251 -> 253 ;
254 [label="age <= -0.578\ngini = 0.375\nsamples = 4\nvalue = [3, 1]"] ;
253 -> 254 ;
255 [label="gini = 0.0\nsamples = 3\nvalue = [3, 0]"] ;
254 -> 255 ;
256 [label="gini = 0.0\nsamples = 1\nvalue = [0, 1]"] ;
254 -> 256 ;
257 [label="gini = 0.0\nsamples = 8\nvalue = [8, 0]"] ;
253 -> 257 ;
258 [label="emp.var.rate <= -1.283\ngini = 0.219\nsamples = 8\nvalue = [7, 1]"] ;
250 -> 258 ;
259 [label="gini = 0.0\nsamples = 6\nvalue = [6, 0]"] ;
258 -> 259 ;
260 [label="duration <= -0.603\ngini = 0.5\nsamples = 2\nvalue = [1, 1]"] ;
258 -> 260 ;
261 [label="gini = 0.0\nsamples = 1\nvalue = [1, 0]"] ;
260 -> 261 ;
262 [label="gini = 0.0\nsamples = 1\nvalue = [0, 1]"] ;
260 -> 262 ;
263 [label="euribor3m <= -2.318\ngini = 0.42\nsamples = 10\nvalue = [7, 3]"] ;
241 -> 263 ;
264 [label="gini = 0.0\nsamples = 4\nvalue = [4, 0]"] ;
263 -> 264 ;
265 [label="duration <= -0.53\ngini = 0.5\nsamples = 6\nvalue = [3, 3]"] ;
263 -> 265 ;
266 [label="campaign <= -0.024\ngini = 0.375\nsamples = 4\nvalue = [1, 3]"] ;
265 -> 266 ;
267 [label="gini = 0.0\nsamples = 1\nvalue = [1, 0]"] ;
266 -> 267 ;
268 [label="gini = 0.0\nsamples = 3\nvalue = [0, 3]"] ;
266 -> 268 ;
269 [label="gini = 0.0\nsamples = 2\nvalue = [2, 0]"] ;
265 -> 269 ;
270 [label="campaign <= -0.387\ngini = 0.5\nsamples = 2\nvalue = [1, 1]"] ;
228 -> 270 ;
271 [label="gini = 0.0\nsamples = 1\nvalue = [1, 0]"] ;
270 -> 271 ;
272 [label="gini = 0.0\nsamples = 1\nvalue = [0, 1]"] ;
270 -> 272 ;
273 [label="euribor3m <= -1.662\ngini = 0.469\nsamples = 8\nvalue = [5, 3]"] ;
219 -> 273 ;
274 [label="gini = 0.0\nsamples = 4\nvalue = [4, 0]"] ;
273 -> 274 ;
275 [label="age <= 1.293\ngini = 0.375\nsamples = 4\nvalue = [1, 3]"] ;
273 -> 275 ;
276 [label="gini = 0.0\nsamples = 3\nvalue = [0, 3]"] ;
275 -> 276 ;
277 [label="gini = 0.0\nsamples = 1\nvalue = [1, 0]"] ;
275 -> 277 ;
278 [label="emp.var.rate <= -1.283\ngini = 0.299\nsamples = 164\nvalue = [134, 30]"] ;
218 -> 278 ;
279 [label="contact <= 0.28\ngini = 0.343\nsamples = 123\nvalue = [96, 27]"] ;
278 -> 279 ;
280 [label="duration <= -0.48\ngini = 0.361\nsamples = 114\nvalue = [87, 27]"] ;
279 -> 280 ;
281 [label="campaign <= -0.387\ngini = 0.438\nsamples = 37\nvalue = [25, 12]"] ;
280 -> 281 ;
282 [label="education <= -0.584\ngini = 0.278\nsamples = 24\nvalue = [20, 4]"] ;
281 -> 282 ;
283 [label="age <= 3.069\ngini = 0.444\nsamples = 3\nvalue = [1, 2]"] ;
282 -> 283 ;
284 [label="gini = 0.0\nsamples = 2\nvalue = [0, 2]"] ;
283 -> 284 ;
285 [label="gini = 0.0\nsamples = 1\nvalue = [1, 0]"] ;
283 -> 285 ;
286 [label="job <= 1.329\ngini = 0.172\nsamples = 21\nvalue = [19, 2]"] ;
282 -> 286 ;
287 [label="gini = 0.0\nsamples = 16\nvalue = [16, 0]"] ;
286 -> 287 ;
288 [label="age <= -0.578\ngini = 0.48\nsamples = 5\nvalue = [3, 2]"] ;
286 -> 288 ;
289 [label="gini = 0.0\nsamples = 2\nvalue = [0, 2]"] ;
288 -> 289 ;
290 [label="gini = 0.0\nsamples = 3\nvalue = [3, 0]"] ;
288 -> 290 ;
291 [label="age <= 0.382\ngini = 0.473\nsamples = 13\nvalue = [5, 8]"] ;
281 -> 291 ;
292 [label="day_of_week <= -1.077\ngini = 0.494\nsamples = 9\nvalue = [5, 4]"] ;
291 -> 292 ;
293 [label="gini = 0.0\nsamples = 3\nvalue = [3, 0]"] ;
292 -> 293 ;
294 [label="previous <= 0.661\ngini = 0.444\nsamples = 6\nvalue = [2, 4]"] ;
292 -> 294 ;
295 [label="day_of_week <= 1.07\ngini = 0.32\nsamples = 5\nvalue = [1, 4]"] ;
294 -> 295 ;
296 [label="gini = 0.0\nsamples = 3\nvalue = [0, 3]"] ;
295 -> 296 ;
297 [label="campaign <= -0.024\ngini = 0.5\nsamples = 2\nvalue = [1, 1]"] ;
295 -> 297 ;
298 [label="gini = 0.0\nsamples = 1\nvalue = [0, 1]"] ;
297 -> 298 ;
299 [label="gini = 0.0\nsamples = 1\nvalue = [1, 0]"] ;
297 -> 299 ;
300 [label="gini = 0.0\nsamples = 1\nvalue = [1, 0]"] ;
294 -> 300 ;
301 [label="gini = 0.0\nsamples = 4\nvalue = [0, 4]"] ;
291 -> 301 ;
302 [label="age <= 3.213\ngini = 0.314\nsamples = 77\nvalue = [62, 15]"] ;
280 -> 302 ;
303 [label="age <= -1.106\ngini = 0.301\nsamples = 76\nvalue = [62, 14]"] ;
302 -> 303 ;
304 [label="gini = 0.0\nsamples = 12\nvalue = [12, 0]"] ;
303 -> 304 ;
305 [label="age <= -0.914\ngini = 0.342\nsamples = 64\nvalue = [50, 14]"] ;
303 -> 305 ;
306 [label="education <= 0.352\ngini = 0.49\nsamples = 7\nvalue = [3, 4]"] ;
305 -> 306 ;
307 [label="gini = 0.0\nsamples = 3\nvalue = [0, 3]"] ;
306 -> 307 ;
308 [label="nr.employed <= -1.567\ngini = 0.375\nsamples = 4\nvalue = [3, 1]"] ;
306 -> 308 ;
309 [label="gini = 0.0\nsamples = 1\nvalue = [0, 1]"] ;
308 -> 309 ;
310 [label="gini = 0.0\nsamples = 3\nvalue = [3, 0]"] ;
308 -> 310 ;
311 [label="previous <= 2.681\ngini = 0.289\nsamples = 57\nvalue = [47, 10]"] ;
305 -> 311 ;
312 [label="euribor3m <= -2.616\ngini = 0.233\nsamples = 52\nvalue = [45, 7]"] ;
311 -> 312 ;
313 [label="euribor3m <= -2.703\ngini = 0.48\nsamples = 5\nvalue = [3, 2]"] ;
312 -> 313 ;
314 [label="gini = 0.0\nsamples = 3\nvalue = [3, 0]"] ;
313 -> 314 ;
315 [label="gini = 0.0\nsamples = 2\nvalue = [0, 2]"] ;
313 -> 315 ;
316 [label="education <= 0.82\ngini = 0.19\nsamples = 47\nvalue = [42, 5]"] ;
312 -> 316 ;
317 [label="gini = 0.0\nsamples = 21\nvalue = [21, 0]"] ;
316 -> 317 ;
318 [label="age <= 2.397\ngini = 0.311\nsamples = 26\nvalue = [21, 5]"] ;
316 -> 318 ;
319 [label="day_of_week <= -1.077\ngini = 0.269\nsamples = 25\nvalue = [21, 4]"] ;
318 -> 319 ;
320 [label="duration <= -0.425\ngini = 0.5\nsamples = 4\nvalue = [2, 2]"] ;
319 -> 320 ;
321 [label="gini = 0.0\nsamples = 2\nvalue = [2, 0]"] ;
320 -> 321 ;
322 [label="gini = 0.0\nsamples = 2\nvalue = [0, 2]"] ;
320 -> 322 ;
323 [label="poutcome <= -1.185\ngini = 0.172\nsamples = 21\nvalue = [19, 2]"] ;
319 -> 323 ;
324 [label="marital <= -1.105\ngini = 0.408\nsamples = 7\nvalue = [5, 2]"] ;
323 -> 324 ;
325 [label="gini = 0.0\nsamples = 2\nvalue = [2, 0]"] ;
324 -> 325 ;
326 [label="marital <= 0.537\ngini = 0.48\nsamples = 5\nvalue = [3, 2]"] ;
324 -> 326 ;
327 [label="education <= 1.288\ngini = 0.444\nsamples = 3\nvalue = [1, 2]"] ;
326 -> 327 ;
328 [label="gini = 0.0\nsamples = 2\nvalue = [0, 2]"] ;
327 -> 328 ;
329 [label="gini = 0.0\nsamples = 1\nvalue = [1, 0]"] ;
327 -> 329 ;
330 [label="gini = 0.0\nsamples = 2\nvalue = [2, 0]"] ;
326 -> 330 ;
331 [label="gini = 0.0\nsamples = 14\nvalue = [14, 0]"] ;
323 -> 331 ;
332 [label="gini = 0.0\nsamples = 1\nvalue = [0, 1]"] ;
318 -> 332 ;
333 [label="day_of_week <= -1.077\ngini = 0.48\nsamples = 5\nvalue = [2, 3]"] ;
311 -> 333 ;
334 [label="gini = 0.0\nsamples = 2\nvalue = [2, 0]"] ;
333 -> 334 ;
335 [label="gini = 0.0\nsamples = 3\nvalue = [0, 3]"] ;
333 -> 335 ;
336 [label="gini = 0.0\nsamples = 1\nvalue = [0, 1]"] ;
302 -> 336 ;
337 [label="gini = 0.0\nsamples = 9\nvalue = [9, 0]"] ;
279 -> 337 ;
338 [label="poutcome <= 1.57\ngini = 0.136\nsamples = 41\nvalue = [38, 3]"] ;
278 -> 338 ;
339 [label="age <= 1.197\ngini = 0.095\nsamples = 40\nvalue = [38, 2]"] ;
338 -> 339 ;
340 [label="gini = 0.0\nsamples = 31\nvalue = [31, 0]"] ;
339 -> 340 ;
341 [label="euribor3m <= -1.822\ngini = 0.346\nsamples = 9\nvalue = [7, 2]"] ;
339 -> 341 ;
342 [label="euribor3m <= -1.953\ngini = 0.444\nsamples = 3\nvalue = [1, 2]"] ;
341 -> 342 ;
343 [label="gini = 0.0\nsamples = 1\nvalue = [0, 1]"] ;
342 -> 343 ;
344 [label="month <= 0.763\ngini = 0.5\nsamples = 2\nvalue = [1, 1]"] ;
342 -> 344 ;
345 [label="gini = 0.0\nsamples = 1\nvalue = [0, 1]"] ;
344 -> 345 ;
346 [label="gini = 0.0\nsamples = 1\nvalue = [1, 0]"] ;
344 -> 346 ;
347 [label="gini = 0.0\nsamples = 6\nvalue = [6, 0]"] ;
341 -> 347 ;
348 [label="gini = 0.0\nsamples = 1\nvalue = [0, 1]"] ;
338 -> 348 ;
349 [label="poutcome <= 1.57\ngini = 0.479\nsamples = 2302\nvalue = [917, 1385]"] ;
1 -> 349 ;
350 [label="duration <= 0.079\ngini = 0.499\nsamples = 1692\nvalue = [812, 880]"] ;
349 -> 350 ;
351 [label="duration <= -0.241\ngini = 0.485\nsamples = 739\nvalue = [434, 305]"] ;
350 -> 351 ;
352 [label="cons.conf.idx <= 2.369\ngini = 0.445\nsamples = 281\nvalue = [187, 94]"] ;
351 -> 352 ;
353 [label="age <= 3.309\ngini = 0.461\nsamples = 253\nvalue = [162, 91]"] ;
352 -> 353 ;
354 [label="euribor3m <= -0.716\ngini = 0.451\nsamples = 242\nvalue = [159, 83]"] ;
353 -> 354 ;
355 [label="pdays <= -4.896\ngini = 0.447\nsamples = 240\nvalue = [159, 81]"] ;
354 -> 355 ;
356 [label="gini = 0.0\nsamples = 2\nvalue = [0, 2]"] ;
355 -> 356 ;
357 [label="nr.employed <= -1.363\ngini = 0.444\nsamples = 238\nvalue = [159, 79]"] ;
355 -> 357 ;
358 [label="age <= -0.818\ngini = 0.406\nsamples = 134\nvalue = [96, 38]"] ;
357 -> 358 ;
359 [label="marital <= 0.537\ngini = 0.486\nsamples = 36\nvalue = [21, 15]"] ;
358 -> 359 ;
360 [label="gini = 0.0\nsamples = 7\nvalue = [0, 7]"] ;
359 -> 360 ;
361 [label="education <= 0.82\ngini = 0.4\nsamples = 29\nvalue = [21, 8]"] ;
359 -> 361 ;
362 [label="loan <= 0.238\ngini = 0.231\nsamples = 15\nvalue = [13, 2]"] ;
361 -> 362 ;
363 [label="gini = 0.0\nsamples = 13\nvalue = [13, 0]"] ;
362 -> 363 ;
364 [label="gini = 0.0\nsamples = 2\nvalue = [0, 2]"] ;
362 -> 364 ;
365 [label="emp.var.rate <= -0.746\ngini = 0.49\nsamples = 14\nvalue = [8, 6]"] ;
361 -> 365 ;
366 [label="duration <= -0.354\ngini = 0.444\nsamples = 12\nvalue = [8, 4]"] ;
365 -> 366 ;
367 [label="age <= -0.914\ngini = 0.375\nsamples = 4\nvalue = [1, 3]"] ;
366 -> 367 ;
368 [label="gini = 0.0\nsamples = 3\nvalue = [0, 3]"] ;
367 -> 368 ;
369 [label="gini = 0.0\nsamples = 1\nvalue = [1, 0]"] ;
367 -> 369 ;
370 [label="duration <= -0.272\ngini = 0.219\nsamples = 8\nvalue = [7, 1]"] ;
366 -> 370 ;
371 [label="gini = 0.0\nsamples = 6\nvalue = [6, 0]"] ;
370 -> 371 ;
372 [label="month <= 1.194\ngini = 0.5\nsamples = 2\nvalue = [1, 1]"] ;
370 -> 372 ;
373 [label="gini = 0.0\nsamples = 1\nvalue = [0, 1]"] ;
372 -> 373 ;
374 [label="gini = 0.0\nsamples = 1\nvalue = [1, 0]"] ;
372 -> 374 ;
375 [label="gini = 0.0\nsamples = 2\nvalue = [0, 2]"] ;
365 -> 375 ;
376 [label="age <= 1.485\ngini = 0.359\nsamples = 98\nvalue = [75, 23]"] ;
358 -> 376 ;
377 [label="duration <= -0.289\ngini = 0.267\nsamples = 63\nvalue = [53, 10]"] ;
376 -> 377 ;
378 [label="job <= 1.607\ngini = 0.159\nsamples = 46\nvalue = [42, 4]"] ;
377 -> 378 ;
379 [label="cons.conf.idx <= 0.697\ngini = 0.127\nsamples = 44\nvalue = [41, 3]"] ;
378 -> 379 ;
380 [label="gini = 0.0\nsamples = 24\nvalue = [24, 0]"] ;
379 -> 380 ;
381 [label="duration <= -0.346\ngini = 0.255\nsamples = 20\nvalue = [17, 3]"] ;
379 -> 381 ;
382 [label="gini = 0.0\nsamples = 9\nvalue = [9, 0]"] ;
381 -> 382 ;
383 [label="euribor3m <= -3.548\ngini = 0.397\nsamples = 11\nvalue = [8, 3]"] ;
381 -> 383 ;
384 [label="gini = 0.0\nsamples = 1\nvalue = [0, 1]"] ;
383 -> 384 ;
385 [label="previous <= 0.661\ngini = 0.32\nsamples = 10\nvalue = [8, 2]"] ;
383 -> 385 ;
386 [label="duration <= -0.339\ngini = 0.219\nsamples = 8\nvalue = [7, 1]"] ;
385 -> 386 ;
387 [label="day_of_week <= 0.712\ngini = 0.5\nsamples = 2\nvalue = [1, 1]"] ;
386 -> 387 ;
388 [label="gini = 0.0\nsamples = 1\nvalue = [0, 1]"] ;
387 -> 388 ;
389 [label="gini = 0.0\nsamples = 1\nvalue = [1, 0]"] ;
387 -> 389 ;
390 [label="gini = 0.0\nsamples = 6\nvalue = [6, 0]"] ;
386 -> 390 ;
391 [label="cons.price.idx <= -0.305\ngini = 0.5\nsamples = 2\nvalue = [1, 1]"] ;
385 -> 391 ;
392 [label="gini = 0.0\nsamples = 1\nvalue = [0, 1]"] ;
391 -> 392 ;
393 [label="gini = 0.0\nsamples = 1\nvalue = [1, 0]"] ;
391 -> 393 ;
394 [label="euribor3m <= -2.543\ngini = 0.5\nsamples = 2\nvalue = [1, 1]"] ;
378 -> 394 ;
395 [label="gini = 0.0\nsamples = 1\nvalue = [0, 1]"] ;
394 -> 395 ;
396 [label="gini = 0.0\nsamples = 1\nvalue = [1, 0]"] ;
394 -> 396 ;
397 [label="poutcome <= -1.185\ngini = 0.457\nsamples = 17\nvalue = [11, 6]"] ;
377 -> 397 ;
398 [label="gini = 0.0\nsamples = 6\nvalue = [6, 0]"] ;
397 -> 398 ;
399 [label="emp.var.rate <= -1.64\ngini = 0.496\nsamples = 11\nvalue = [5, 6]"] ;
397 -> 399 ;
400 [label="gini = 0.0\nsamples = 2\nvalue = [2, 0]"] ;
399 -> 400 ;
401 [label="day_of_week <= -1.077\ngini = 0.444\nsamples = 9\nvalue = [3, 6]"] ;
399 -> 401 ;
402 [label="gini = 0.0\nsamples = 2\nvalue = [2, 0]"] ;
401 -> 402 ;
403 [label="job <= 1.468\ngini = 0.245\nsamples = 7\nvalue = [1, 6]"] ;
401 -> 403 ;
404 [label="gini = 0.0\nsamples = 6\nvalue = [0, 6]"] ;
403 -> 404 ;
405 [label="gini = 0.0\nsamples = 1\nvalue = [1, 0]"] ;
403 -> 405 ;
406 [label="euribor3m <= -1.757\ngini = 0.467\nsamples = 35\nvalue = [22, 13]"] ;
376 -> 406 ;
407 [label="month <= -0.746\ngini = 0.5\nsamples = 24\nvalue = [12, 12]"] ;
406 -> 407 ;
408 [label="campaign <= -0.024\ngini = 0.245\nsamples = 7\nvalue = [6, 1]"] ;
407 -> 408 ;
409 [label="gini = 0.0\nsamples = 6\nvalue = [6, 0]"] ;
408 -> 409 ;
410 [label="gini = 0.0\nsamples = 1\nvalue = [0, 1]"] ;
408 -> 410 ;
411 [label="education <= -1.286\ngini = 0.457\nsamples = 17\nvalue = [6, 11]"] ;
407 -> 411 ;
412 [label="duration <= -0.268\ngini = 0.494\nsamples = 9\nvalue = [5, 4]"] ;
411 -> 412 ;
413 [label="day_of_week <= -0.003\ngini = 0.408\nsamples = 7\nvalue = [5, 2]"] ;
412 -> 413 ;
414 [label="job <= 0.077\ngini = 0.444\nsamples = 3\nvalue = [1, 2]"] ;
413 -> 414 ;
415 [label="gini = 0.0\nsamples = 1\nvalue = [1, 0]"] ;
414 -> 415 ;
416 [label="gini = 0.0\nsamples = 2\nvalue = [0, 2]"] ;
414 -> 416 ;
417 [label="gini = 0.0\nsamples = 4\nvalue = [4, 0]"] ;
413 -> 417 ;
418 [label="gini = 0.0\nsamples = 2\nvalue = [0, 2]"] ;
412 -> 418 ;
419 [label="loan <= 0.929\ngini = 0.219\nsamples = 8\nvalue = [1, 7]"] ;
411 -> 419 ;
420 [label="gini = 0.0\nsamples = 7\nvalue = [0, 7]"] ;
419 -> 420 ;
421 [label="gini = 0.0\nsamples = 1\nvalue = [1, 0]"] ;
419 -> 421 ;
422 [label="day_of_week <= -1.077\ngini = 0.165\nsamples = 11\nvalue = [10, 1]"] ;
406 -> 422 ;
423 [label="gini = 0.0\nsamples = 1\nvalue = [0, 1]"] ;
422 -> 423 ;
424 [label="gini = 0.0\nsamples = 10\nvalue = [10, 0]"] ;
422 -> 424 ;
425 [label="duration <= -0.287\ngini = 0.478\nsamples = 104\nvalue = [63, 41]"] ;
357 -> 425 ;
426 [label="loan <= 1.62\ngini = 0.496\nsamples = 79\nvalue = [43, 36]"] ;
425 -> 426 ;
427 [label="age <= 0.766\ngini = 0.485\nsamples = 70\nvalue = [41, 29]"] ;
426 -> 427 ;
428 [label="age <= 0.142\ngini = 0.5\nsamples = 47\nvalue = [23, 24]"] ;
427 -> 428 ;
429 [label="day_of_week <= -1.077\ngini = 0.486\nsamples = 36\nvalue = [21, 15]"] ;
428 -> 429 ;
430 [label="gini = 0.0\nsamples = 3\nvalue = [0, 3]"] ;
429 -> 430 ;
431 [label="education <= 0.82\ngini = 0.463\nsamples = 33\nvalue = [21, 12]"] ;
429 -> 431 ;
432 [label="duration <= -0.333\ngini = 0.499\nsamples = 19\nvalue = [10, 9]"] ;
431 -> 432 ;
433 [label="duration <= -0.379\ngini = 0.459\nsamples = 14\nvalue = [9, 5]"] ;
432 -> 433 ;
434 [label="job <= 1.05\ngini = 0.48\nsamples = 5\nvalue = [2, 3]"] ;
433 -> 434 ;
435 [label="gini = 0.0\nsamples = 2\nvalue = [2, 0]"] ;
434 -> 435 ;
436 [label="gini = 0.0\nsamples = 3\nvalue = [0, 3]"] ;
434 -> 436 ;
437 [label="job <= 0.216\ngini = 0.346\nsamples = 9\nvalue = [7, 2]"] ;
433 -> 437 ;
438 [label="duration <= -0.365\ngini = 0.48\nsamples = 5\nvalue = [3, 2]"] ;
437 -> 438 ;
439 [label="gini = 0.0\nsamples = 2\nvalue = [2, 0]"] ;
438 -> 439 ;
440 [label="day_of_week <= 1.07\ngini = 0.444\nsamples = 3\nvalue = [1, 2]"] ;
438 -> 440 ;
441 [label="gini = 0.0\nsamples = 2\nvalue = [0, 2]"] ;
440 -> 441 ;
442 [label="gini = 0.0\nsamples = 1\nvalue = [1, 0]"] ;
440 -> 442 ;
443 [label="gini = 0.0\nsamples = 4\nvalue = [4, 0]"] ;
437 -> 443 ;
444 [label="campaign <= -0.024\ngini = 0.32\nsamples = 5\nvalue = [1, 4]"] ;
432 -> 444 ;
445 [label="gini = 0.0\nsamples = 4\nvalue = [0, 4]"] ;
444 -> 445 ;
446 [label="gini = 0.0\nsamples = 1\nvalue = [1, 0]"] ;
444 -> 446 ;
447 [label="euribor3m <= -0.825\ngini = 0.337\nsamples = 14\nvalue = [11, 3]"] ;
431 -> 447 ;
448 [label="gini = 0.0\nsamples = 8\nvalue = [8, 0]"] ;
447 -> 448 ;
449 [label="marital <= 0.537\ngini = 0.5\nsamples = 6\nvalue = [3, 3]"] ;
447 -> 449 ;
450 [label="gini = 0.0\nsamples = 2\nvalue = [2, 0]"] ;
449 -> 450 ;
451 [label="euribor3m <= -0.774\ngini = 0.375\nsamples = 4\nvalue = [1, 3]"] ;
449 -> 451 ;
452 [label="gini = 0.0\nsamples = 3\nvalue = [0, 3]"] ;
451 -> 452 ;
453 [label="gini = 0.0\nsamples = 1\nvalue = [1, 0]"] ;
451 -> 453 ;
454 [label="campaign <= 1.788\ngini = 0.298\nsamples = 11\nvalue = [2, 9]"] ;
428 -> 454 ;
455 [label="duration <= -0.396\ngini = 0.18\nsamples = 10\nvalue = [1, 9]"] ;
454 -> 455 ;
456 [label="job <= 0.216\ngini = 0.5\nsamples = 2\nvalue = [1, 1]"] ;
455 -> 456 ;
457 [label="gini = 0.0\nsamples = 1\nvalue = [0, 1]"] ;
456 -> 457 ;
458 [label="gini = 0.0\nsamples = 1\nvalue = [1, 0]"] ;
456 -> 458 ;
459 [label="gini = 0.0\nsamples = 8\nvalue = [0, 8]"] ;
455 -> 459 ;
460 [label="gini = 0.0\nsamples = 1\nvalue = [1, 0]"] ;
454 -> 460 ;
461 [label="euribor3m <= -1.99\ngini = 0.34\nsamples = 23\nvalue = [18, 5]"] ;
427 -> 461 ;
462 [label="duration <= -0.367\ngini = 0.5\nsamples = 8\nvalue = [4, 4]"] ;
461 -> 462 ;
463 [label="gini = 0.0\nsamples = 2\nvalue = [0, 2]"] ;
462 -> 463 ;
464 [label="housing <= -0.073\ngini = 0.444\nsamples = 6\nvalue = [4, 2]"] ;
462 -> 464 ;
465 [label="age <= 2.157\ngini = 0.444\nsamples = 3\nvalue = [1, 2]"] ;
464 -> 465 ;
466 [label="gini = 0.0\nsamples = 2\nvalue = [0, 2]"] ;
465 -> 466 ;
467 [label="gini = 0.0\nsamples = 1\nvalue = [1, 0]"] ;
465 -> 467 ;
468 [label="gini = 0.0\nsamples = 3\nvalue = [3, 0]"] ;
464 -> 468 ;
469 [label="job <= 0.216\ngini = 0.124\nsamples = 15\nvalue = [14, 1]"] ;
461 -> 469 ;
470 [label="gini = 0.0\nsamples = 10\nvalue = [10, 0]"] ;
469 -> 470 ;
471 [label="cons.price.idx <= -1.744\ngini = 0.32\nsamples = 5\nvalue = [4, 1]"] ;
469 -> 471 ;
472 [label="gini = 0.0\nsamples = 4\nvalue = [4, 0]"] ;
471 -> 472 ;
473 [label="gini = 0.0\nsamples = 1\nvalue = [0, 1]"] ;
471 -> 473 ;
474 [label="education <= -0.584\ngini = 0.346\nsamples = 9\nvalue = [2, 7]"] ;
426 -> 474 ;
475 [label="campaign <= -0.024\ngini = 0.444\nsamples = 3\nvalue = [2, 1]"] ;
474 -> 475 ;
476 [label="gini = 0.0\nsamples = 2\nvalue = [2, 0]"] ;
475 -> 476 ;
477 [label="gini = 0.0\nsamples = 1\nvalue = [0, 1]"] ;
475 -> 477 ;
478 [label="gini = 0.0\nsamples = 6\nvalue = [0, 6]"] ;
474 -> 478 ;
479 [label="duration <= -0.275\ngini = 0.32\nsamples = 25\nvalue = [20, 5]"] ;
425 -> 479 ;
480 [label="gini = 0.0\nsamples = 8\nvalue = [8, 0]"] ;
479 -> 480 ;
481 [label="education <= 0.118\ngini = 0.415\nsamples = 17\nvalue = [12, 5]"] ;
479 -> 481 ;
482 [label="gini = 0.0\nsamples = 5\nvalue = [5, 0]"] ;
481 -> 482 ;
483 [label="contact <= 0.28\ngini = 0.486\nsamples = 12\nvalue = [7, 5]"] ;
481 -> 483 ;
484 [label="euribor3m <= -0.854\ngini = 0.494\nsamples = 9\nvalue = [4, 5]"] ;
483 -> 484 ;
485 [label="poutcome <= -1.185\ngini = 0.444\nsamples = 6\nvalue = [4, 2]"] ;
484 -> 485 ;
486 [label="gini = 0.0\nsamples = 1\nvalue = [0, 1]"] ;
485 -> 486 ;
487 [label="day_of_week <= 1.07\ngini = 0.32\nsamples = 5\nvalue = [4, 1]"] ;
485 -> 487 ;
488 [label="gini = 0.0\nsamples = 4\nvalue = [4, 0]"] ;
487 -> 488 ;
489 [label="gini = 0.0\nsamples = 1\nvalue = [0, 1]"] ;
487 -> 489 ;
490 [label="gini = 0.0\nsamples = 3\nvalue = [0, 3]"] ;
484 -> 490 ;
491 [label="gini = 0.0\nsamples = 3\nvalue = [3, 0]"] ;
483 -> 491 ;
492 [label="gini = 0.0\nsamples = 2\nvalue = [0, 2]"] ;
354 -> 492 ;
493 [label="euribor3m <= -3.068\ngini = 0.397\nsamples = 11\nvalue = [3, 8]"] ;
353 -> 493 ;
494 [label="duration <= -0.331\ngini = 0.48\nsamples = 5\nvalue = [3, 2]"] ;
493 -> 494 ;
495 [label="gini = 0.0\nsamples = 2\nvalue = [0, 2]"] ;
494 -> 495 ;
496 [label="gini = 0.0\nsamples = 3\nvalue = [3, 0]"] ;
494 -> 496 ;
497 [label="gini = 0.0\nsamples = 6\nvalue = [0, 6]"] ;
493 -> 497 ;
498 [label="duration <= -0.379\ngini = 0.191\nsamples = 28\nvalue = [25, 3]"] ;
352 -> 498 ;
499 [label="gini = 0.0\nsamples = 2\nvalue = [0, 2]"] ;
498 -> 499 ;
500 [label="previous <= 0.661\ngini = 0.074\nsamples = 26\nvalue = [25, 1]"] ;
498 -> 500 ;
501 [label="gini = 0.0\nsamples = 23\nvalue = [23, 0]"] ;
500 -> 501 ;
502 [label="age <= -0.674\ngini = 0.444\nsamples = 3\nvalue = [2, 1]"] ;
500 -> 502 ;
503 [label="gini = 0.0\nsamples = 1\nvalue = [0, 1]"] ;
502 -> 503 ;
504 [label="gini = 0.0\nsamples = 2\nvalue = [2, 0]"] ;
502 -> 504 ;
505 [label="job <= -0.619\ngini = 0.497\nsamples = 458\nvalue = [247, 211]"] ;
351 -> 505 ;
506 [label="duration <= -0.199\ngini = 0.495\nsamples = 168\nvalue = [76, 92]"] ;
505 -> 506 ;
507 [label="day_of_week <= 0.354\ngini = 0.475\nsamples = 31\nvalue = [19, 12]"] ;
506 -> 507 ;
508 [label="campaign <= 0.338\ngini = 0.332\nsamples = 19\nvalue = [15, 4]"] ;
507 -> 508 ;
509 [label="marital <= 0.537\ngini = 0.219\nsamples = 16\nvalue = [14, 2]"] ;
508 -> 509 ;
510 [label="age <= -0.338\ngini = 0.375\nsamples = 8\nvalue = [6, 2]"] ;
509 -> 510 ;
511 [label="duration <= -0.216\ngini = 0.444\nsamples = 3\nvalue = [1, 2]"] ;
510 -> 511 ;
512 [label="gini = 0.0\nsamples = 2\nvalue = [0, 2]"] ;
511 -> 512 ;
513 [label="gini = 0.0\nsamples = 1\nvalue = [1, 0]"] ;
511 -> 513 ;
514 [label="gini = 0.0\nsamples = 5\nvalue = [5, 0]"] ;
510 -> 514 ;
515 [label="gini = 0.0\nsamples = 8\nvalue = [8, 0]"] ;
509 -> 515 ;
516 [label="cons.conf.idx <= 0.864\ngini = 0.444\nsamples = 3\nvalue = [1, 2]"] ;
508 -> 516 ;
517 [label="gini = 0.0\nsamples = 1\nvalue = [1, 0]"] ;
516 -> 517 ;
518 [label="gini = 0.0\nsamples = 2\nvalue = [0, 2]"] ;
516 -> 518 ;
519 [label="month <= 0.116\ngini = 0.444\nsamples = 12\nvalue = [4, 8]"] ;
507 -> 519 ;
520 [label="euribor3m <= -2.07\ngini = 0.5\nsamples = 8\nvalue = [4, 4]"] ;
519 -> 520 ;
521 [label="gini = 0.0\nsamples = 2\nvalue = [2, 0]"] ;
520 -> 521 ;
522 [label="duration <= -0.216\ngini = 0.444\nsamples = 6\nvalue = [2, 4]"] ;
520 -> 522 ;
523 [label="duration <= -0.231\ngini = 0.444\nsamples = 3\nvalue = [2, 1]"] ;
522 -> 523 ;
524 [label="gini = 0.0\nsamples = 1\nvalue = [0, 1]"] ;
523 -> 524 ;
525 [label="gini = 0.0\nsamples = 2\nvalue = [2, 0]"] ;
523 -> 525 ;
526 [label="gini = 0.0\nsamples = 3\nvalue = [0, 3]"] ;
522 -> 526 ;
527 [label="gini = 0.0\nsamples = 4\nvalue = [0, 4]"] ;
519 -> 527 ;
528 [label="age <= -0.914\ngini = 0.486\nsamples = 137\nvalue = [57, 80]"] ;
506 -> 528 ;
529 [label="month <= -1.608\ngini = 0.382\nsamples = 35\nvalue = [9, 26]"] ;
528 -> 529 ;
530 [label="gini = 0.0\nsamples = 2\nvalue = [2, 0]"] ;
529 -> 530 ;
531 [label="contact <= 0.28\ngini = 0.334\nsamples = 33\nvalue = [7, 26]"] ;
529 -> 531 ;
532 [label="cons.price.idx <= -2.194\ngini = 0.278\nsamples = 30\nvalue = [5, 25]"] ;
531 -> 532 ;
533 [label="poutcome <= -1.185\ngini = 0.444\nsamples = 3\nvalue = [2, 1]"] ;
532 -> 533 ;
534 [label="gini = 0.0\nsamples = 2\nvalue = [2, 0]"] ;
533 -> 534 ;
535 [label="gini = 0.0\nsamples = 1\nvalue = [0, 1]"] ;
533 -> 535 ;
536 [label="day_of_week <= -0.361\ngini = 0.198\nsamples = 27\nvalue = [3, 24]"] ;
532 -> 536 ;
537 [label="duration <= -0.172\ngini = 0.375\nsamples = 12\nvalue = [3, 9]"] ;
536 -> 537 ;
538 [label="gini = 0.0\nsamples = 1\nvalue = [1, 0]"] ;
537 -> 538 ;
539 [label="duration <= 0.018\ngini = 0.298\nsamples = 11\nvalue = [2, 9]"] ;
537 -> 539 ;
540 [label="gini = 0.0\nsamples = 7\nvalue = [0, 7]"] ;
539 -> 540 ;
541 [label="euribor3m <= -2.82\ngini = 0.5\nsamples = 4\nvalue = [2, 2]"] ;
539 -> 541 ;
542 [label="gini = 0.0\nsamples = 2\nvalue = [2, 0]"] ;
541 -> 542 ;
543 [label="gini = 0.0\nsamples = 2\nvalue = [0, 2]"] ;
541 -> 543 ;
544 [label="gini = 0.0\nsamples = 15\nvalue = [0, 15]"] ;
536 -> 544 ;
545 [label="poutcome <= -1.185\ngini = 0.444\nsamples = 3\nvalue = [2, 1]"] ;
531 -> 545 ;
546 [label="gini = 0.0\nsamples = 1\nvalue = [0, 1]"] ;
545 -> 546 ;
547 [label="gini = 0.0\nsamples = 2\nvalue = [2, 0]"] ;
545 -> 547 ;
548 [label="previous <= 0.661\ngini = 0.498\nsamples = 102\nvalue = [48, 54]"] ;
528 -> 548 ;
549 [label="age <= 0.046\ngini = 0.476\nsamples = 77\nvalue = [30, 47]"] ;
548 -> 549 ;
550 [label="marital <= 0.537\ngini = 0.5\nsamples = 45\nvalue = [22, 23]"] ;
549 -> 550 ;
551 [label="day_of_week <= 0.354\ngini = 0.48\nsamples = 30\nvalue = [18, 12]"] ;
550 -> 551 ;
552 [label="month <= -1.608\ngini = 0.291\nsamples = 17\nvalue = [14, 3]"] ;
551 -> 552 ;
553 [label="gini = 0.0\nsamples = 1\nvalue = [0, 1]"] ;
552 -> 553 ;
554 [label="month <= -0.315\ngini = 0.219\nsamples = 16\nvalue = [14, 2]"] ;
552 -> 554 ;
555 [label="duration <= -0.111\ngini = 0.408\nsamples = 7\nvalue = [5, 2]"] ;
554 -> 555 ;
556 [label="cons.price.idx <= -2.284\ngini = 0.444\nsamples = 3\nvalue = [1, 2]"] ;
555 -> 556 ;
557 [label="gini = 0.0\nsamples = 1\nvalue = [1, 0]"] ;
556 -> 557 ;
558 [label="gini = 0.0\nsamples = 2\nvalue = [0, 2]"] ;
556 -> 558 ;
559 [label="gini = 0.0\nsamples = 4\nvalue = [4, 0]"] ;
555 -> 559 ;
560 [label="gini = 0.0\nsamples = 9\nvalue = [9, 0]"] ;
554 -> 560 ;
561 [label="month <= -0.315\ngini = 0.426\nsamples = 13\nvalue = [4, 9]"] ;
551 -> 561 ;
562 [label="gini = 0.0\nsamples = 4\nvalue = [0, 4]"] ;
561 -> 562 ;
563 [label="duration <= -0.174\ngini = 0.494\nsamples = 9\nvalue = [4, 5]"] ;
561 -> 563 ;
564 [label="gini = 0.0\nsamples = 3\nvalue = [0, 3]"] ;
563 -> 564 ;
565 [label="duration <= -0.111\ngini = 0.444\nsamples = 6\nvalue = [4, 2]"] ;
563 -> 565 ;
566 [label="gini = 0.0\nsamples = 3\nvalue = [3, 0]"] ;
565 -> 566 ;
567 [label="age <= -0.29\ngini = 0.444\nsamples = 3\nvalue = [1, 2]"] ;
565 -> 567 ;
568 [label="gini = 0.0\nsamples = 2\nvalue = [0, 2]"] ;
567 -> 568 ;
569 [label="gini = 0.0\nsamples = 1\nvalue = [1, 0]"] ;
567 -> 569 ;
570 [label="day_of_week <= 0.354\ngini = 0.391\nsamples = 15\nvalue = [4, 11]"] ;
550 -> 570 ;
571 [label="gini = 0.0\nsamples = 7\nvalue = [0, 7]"] ;
570 -> 571 ;
572 [label="age <= -0.818\ngini = 0.5\nsamples = 8\nvalue = [4, 4]"] ;
570 -> 572 ;
573 [label="gini = 0.0\nsamples = 3\nvalue = [3, 0]"] ;
572 -> 573 ;
574 [label="duration <= 0.012\ngini = 0.32\nsamples = 5\nvalue = [1, 4]"] ;
572 -> 574 ;
575 [label="gini = 0.0\nsamples = 4\nvalue = [0, 4]"] ;
574 -> 575 ;
576 [label="gini = 0.0\nsamples = 1\nvalue = [1, 0]"] ;
574 -> 576 ;
577 [label="age <= 0.958\ngini = 0.375\nsamples = 32\nvalue = [8, 24]"] ;
549 -> 577 ;
578 [label="age <= 0.238\ngini = 0.124\nsamples = 15\nvalue = [1, 14]"] ;
577 -> 578 ;
579 [label="month <= -1.177\ngini = 0.375\nsamples = 4\nvalue = [1, 3]"] ;
578 -> 579 ;
580 [label="gini = 0.0\nsamples = 1\nvalue = [1, 0]"] ;
579 -> 580 ;
581 [label="gini = 0.0\nsamples = 3\nvalue = [0, 3]"] ;
579 -> 581 ;
582 [label="gini = 0.0\nsamples = 11\nvalue = [0, 11]"] ;
578 -> 582 ;
583 [label="duration <= 0.029\ngini = 0.484\nsamples = 17\nvalue = [7, 10]"] ;
577 -> 583 ;
584 [label="duration <= -0.124\ngini = 0.408\nsamples = 14\nvalue = [4, 10]"] ;
583 -> 584 ;
585 [label="cons.price.idx <= -1.384\ngini = 0.49\nsamples = 7\nvalue = [4, 3]"] ;
584 -> 585 ;
586 [label="gini = 0.0\nsamples = 3\nvalue = [0, 3]"] ;
585 -> 586 ;
587 [label="gini = 0.0\nsamples = 4\nvalue = [4, 0]"] ;
585 -> 587 ;
588 [label="gini = 0.0\nsamples = 7\nvalue = [0, 7]"] ;
584 -> 588 ;
589 [label="gini = 0.0\nsamples = 3\nvalue = [3, 0]"] ;
583 -> 589 ;
590 [label="euribor3m <= -2.995\ngini = 0.403\nsamples = 25\nvalue = [18, 7]"] ;
548 -> 590 ;
591 [label="duration <= -0.04\ngini = 0.408\nsamples = 7\nvalue = [2, 5]"] ;
590 -> 591 ;
592 [label="gini = 0.0\nsamples = 4\nvalue = [0, 4]"] ;
591 -> 592 ;
593 [label="day_of_week <= -0.719\ngini = 0.444\nsamples = 3\nvalue = [2, 1]"] ;
591 -> 593 ;
594 [label="gini = 0.0\nsamples = 1\nvalue = [0, 1]"] ;
593 -> 594 ;
595 [label="gini = 0.0\nsamples = 2\nvalue = [2, 0]"] ;
593 -> 595 ;
596 [label="age <= 1.197\ngini = 0.198\nsamples = 18\nvalue = [16, 2]"] ;
590 -> 596 ;
597 [label="gini = 0.0\nsamples = 15\nvalue = [15, 0]"] ;
596 -> 597 ;
598 [label="duration <= -0.122\ngini = 0.444\nsamples = 3\nvalue = [1, 2]"] ;
596 -> 598 ;
599 [label="gini = 0.0\nsamples = 1\nvalue = [1, 0]"] ;
598 -> 599 ;
600 [label="gini = 0.0\nsamples = 2\nvalue = [0, 2]"] ;
598 -> 600 ;
601 [label="euribor3m <= -1.91\ngini = 0.484\nsamples = 290\nvalue = [171, 119]"] ;
505 -> 601 ;
602 [label="contact <= 0.28\ngini = 0.499\nsamples = 182\nvalue = [95, 87]"] ;
601 -> 602 ;
603 [label="duration <= 0.027\ngini = 0.499\nsamples = 152\nvalue = [73, 79]"] ;
602 -> 603 ;
604 [label="duration <= -0.095\ngini = 0.499\nsamples = 131\nvalue = [68, 63]"] ;
603 -> 604 ;
605 [label="euribor3m <= -3.599\ngini = 0.473\nsamples = 73\nvalue = [28, 45]"] ;
604 -> 605 ;
606 [label="gini = 0.0\nsamples = 4\nvalue = [4, 0]"] ;
605 -> 606 ;
607 [label="day_of_week <= 0.354\ngini = 0.454\nsamples = 69\nvalue = [24, 45]"] ;
605 -> 607 ;
608 [label="age <= -1.394\ngini = 0.391\nsamples = 45\nvalue = [12, 33]"] ;
607 -> 608 ;
609 [label="gini = 0.0\nsamples = 3\nvalue = [3, 0]"] ;
608 -> 609 ;
610 [label="job <= 1.05\ngini = 0.337\nsamples = 42\nvalue = [9, 33]"] ;
608 -> 610 ;
611 [label="default <= 0.716\ngini = 0.219\nsamples = 24\nvalue = [3, 21]"] ;
610 -> 611 ;
612 [label="month <= 1.409\ngini = 0.159\nsamples = 23\nvalue = [2, 21]"] ;
611 -> 612 ;
613 [label="education <= -1.286\ngini = 0.091\nsamples = 21\nvalue = [1, 20]"] ;
612 -> 613 ;
614 [label="age <= 2.493\ngini = 0.444\nsamples = 3\nvalue = [1, 2]"] ;
613 -> 614 ;
615 [label="gini = 0.0\nsamples = 2\nvalue = [0, 2]"] ;
614 -> 615 ;
616 [label="gini = 0.0\nsamples = 1\nvalue = [1, 0]"] ;
614 -> 616 ;
617 [label="gini = 0.0\nsamples = 18\nvalue = [0, 18]"] ;
613 -> 617 ;
618 [label="age <= 1.437\ngini = 0.5\nsamples = 2\nvalue = [1, 1]"] ;
612 -> 618 ;
619 [label="gini = 0.0\nsamples = 1\nvalue = [1, 0]"] ;
618 -> 619 ;
620 [label="gini = 0.0\nsamples = 1\nvalue = [0, 1]"] ;
618 -> 620 ;
621 [label="gini = 0.0\nsamples = 1\nvalue = [1, 0]"] ;
611 -> 621 ;
622 [label="duration <= -0.218\ngini = 0.444\nsamples = 18\nvalue = [6, 12]"] ;
610 -> 622 ;
623 [label="gini = 0.0\nsamples = 2\nvalue = [2, 0]"] ;
622 -> 623 ;
624 [label="age <= 1.821\ngini = 0.375\nsamples = 16\nvalue = [4, 12]"] ;
622 -> 624 ;
625 [label="job <= 1.329\ngini = 0.26\nsamples = 13\nvalue = [2, 11]"] ;
624 -> 625 ;
626 [label="gini = 0.0\nsamples = 1\nvalue = [1, 0]"] ;
625 -> 626 ;
627 [label="campaign <= -0.024\ngini = 0.153\nsamples = 12\nvalue = [1, 11]"] ;
625 -> 627 ;
628 [label="gini = 0.0\nsamples = 10\nvalue = [0, 10]"] ;
627 -> 628 ;
629 [label="housing <= -0.073\ngini = 0.5\nsamples = 2\nvalue = [1, 1]"] ;
627 -> 629 ;
630 [label="gini = 0.0\nsamples = 1\nvalue = [1, 0]"] ;
629 -> 630 ;
631 [label="gini = 0.0\nsamples = 1\nvalue = [0, 1]"] ;
629 -> 631 ;
632 [label="cons.conf.idx <= 0.78\ngini = 0.444\nsamples = 3\nvalue = [2, 1]"] ;
624 -> 632 ;
633 [label="gini = 0.0\nsamples = 1\nvalue = [0, 1]"] ;
632 -> 633 ;
634 [label="gini = 0.0\nsamples = 2\nvalue = [2, 0]"] ;
632 -> 634 ;
635 [label="cons.price.idx <= -2.284\ngini = 0.5\nsamples = 24\nvalue = [12, 12]"] ;
607 -> 635 ;
636 [label="duration <= -0.107\ngini = 0.245\nsamples = 7\nvalue = [6, 1]"] ;
635 -> 636 ;
637 [label="gini = 0.0\nsamples = 6\nvalue = [6, 0]"] ;
636 -> 637 ;
638 [label="gini = 0.0\nsamples = 1\nvalue = [0, 1]"] ;
636 -> 638 ;
639 [label="loan <= 0.238\ngini = 0.457\nsamples = 17\nvalue = [6, 11]"] ;
635 -> 639 ;
640 [label="job <= 0.494\ngini = 0.337\nsamples = 14\nvalue = [3, 11]"] ;
639 -> 640 ;
641 [label="euribor3m <= -2.973\ngini = 0.469\nsamples = 8\nvalue = [3, 5]"] ;
640 -> 641 ;
642 [label="gini = 0.0\nsamples = 3\nvalue = [0, 3]"] ;
641 -> 642 ;
643 [label="duration <= -0.178\ngini = 0.48\nsamples = 5\nvalue = [3, 2]"] ;
641 -> 643 ;
644 [label="gini = 0.0\nsamples = 3\nvalue = [3, 0]"] ;
643 -> 644 ;
645 [label="gini = 0.0\nsamples = 2\nvalue = [0, 2]"] ;
643 -> 645 ;
646 [label="gini = 0.0\nsamples = 6\nvalue = [0, 6]"] ;
640 -> 646 ;
647 [label="gini = 0.0\nsamples = 3\nvalue = [3, 0]"] ;
639 -> 647 ;
648 [label="month <= -0.746\ngini = 0.428\nsamples = 58\nvalue = [40, 18]"] ;
604 -> 648 ;
649 [label="day_of_week <= 0.712\ngini = 0.227\nsamples = 23\nvalue = [20, 3]"] ;
648 -> 649 ;
650 [label="euribor3m <= -1.961\ngini = 0.1\nsamples = 19\nvalue = [18, 1]"] ;
649 -> 650 ;
651 [label="gini = 0.0\nsamples = 17\nvalue = [17, 0]"] ;
650 -> 651 ;
652 [label="housing <= -0.073\ngini = 0.5\nsamples = 2\nvalue = [1, 1]"] ;
650 -> 652 ;
653 [label="gini = 0.0\nsamples = 1\nvalue = [0, 1]"] ;
652 -> 653 ;
654 [label="gini = 0.0\nsamples = 1\nvalue = [1, 0]"] ;
652 -> 654 ;
655 [label="duration <= -0.051\ngini = 0.5\nsamples = 4\nvalue = [2, 2]"] ;
649 -> 655 ;
656 [label="gini = 0.0\nsamples = 2\nvalue = [0, 2]"] ;
655 -> 656 ;
657 [label="gini = 0.0\nsamples = 2\nvalue = [2, 0]"] ;
655 -> 657 ;
658 [label="housing <= 0.435\ngini = 0.49\nsamples = 35\nvalue = [20, 15]"] ;
648 -> 658 ;
659 [label="month <= 0.978\ngini = 0.291\nsamples = 17\nvalue = [14, 3]"] ;
658 -> 659 ;
660 [label="job <= 1.468\ngini = 0.5\nsamples = 6\nvalue = [3, 3]"] ;
659 -> 660 ;
661 [label="day_of_week <= -1.077\ngini = 0.375\nsamples = 4\nvalue = [1, 3]"] ;
660 -> 661 ;
662 [label="gini = 0.0\nsamples = 1\nvalue = [1, 0]"] ;
661 -> 662 ;
663 [label="gini = 0.0\nsamples = 3\nvalue = [0, 3]"] ;
661 -> 663 ;
664 [label="gini = 0.0\nsamples = 2\nvalue = [2, 0]"] ;
660 -> 664 ;
665 [label="gini = 0.0\nsamples = 11\nvalue = [11, 0]"] ;
659 -> 665 ;
666 [label="job <= 0.077\ngini = 0.444\nsamples = 18\nvalue = [6, 12]"] ;
658 -> 666 ;
667 [label="gini = 0.0\nsamples = 3\nvalue = [3, 0]"] ;
666 -> 667 ;
668 [label="cons.price.idx <= -0.035\ngini = 0.32\nsamples = 15\nvalue = [3, 12]"] ;
666 -> 668 ;
669 [label="gini = 0.0\nsamples = 11\nvalue = [0, 11]"] ;
668 -> 669 ;
670 [label="previous <= 2.681\ngini = 0.375\nsamples = 4\nvalue = [3, 1]"] ;
668 -> 670 ;
671 [label="gini = 0.0\nsamples = 3\nvalue = [3, 0]"] ;
670 -> 671 ;
672 [label="gini = 0.0\nsamples = 1\nvalue = [0, 1]"] ;
670 -> 672 ;
673 [label="age <= -2.018\ngini = 0.363\nsamples = 21\nvalue = [5, 16]"] ;
603 -> 673 ;
674 [label="gini = 0.0\nsamples = 1\nvalue = [1, 0]"] ;
673 -> 674 ;
675 [label="day_of_week <= -0.361\ngini = 0.32\nsamples = 20\nvalue = [4, 16]"] ;
673 -> 675 ;
676 [label="gini = 0.0\nsamples = 10\nvalue = [0, 10]"] ;
675 -> 676 ;
677 [label="education <= 0.118\ngini = 0.48\nsamples = 10\nvalue = [4, 6]"] ;
675 -> 677 ;
678 [label="age <= 3.357\ngini = 0.245\nsamples = 7\nvalue = [1, 6]"] ;
677 -> 678 ;
679 [label="gini = 0.0\nsamples = 6\nvalue = [0, 6]"] ;
678 -> 679 ;
680 [label="gini = 0.0\nsamples = 1\nvalue = [1, 0]"] ;
678 -> 680 ;
681 [label="gini = 0.0\nsamples = 3\nvalue = [3, 0]"] ;
677 -> 681 ;
682 [label="campaign <= -0.387\ngini = 0.391\nsamples = 30\nvalue = [22, 8]"] ;
602 -> 682 ;
683 [label="cons.conf.idx <= 2.202\ngini = 0.498\nsamples = 15\nvalue = [8, 7]"] ;
682 -> 683 ;
684 [label="euribor3m <= -2.944\ngini = 0.42\nsamples = 10\nvalue = [3, 7]"] ;
683 -> 684 ;
685 [label="month <= 0.116\ngini = 0.5\nsamples = 6\nvalue = [3, 3]"] ;
684 -> 685 ;
686 [label="gini = 0.0\nsamples = 3\nvalue = [3, 0]"] ;
685 -> 686 ;
687 [label="gini = 0.0\nsamples = 3\nvalue = [0, 3]"] ;
685 -> 687 ;
688 [label="gini = 0.0\nsamples = 4\nvalue = [0, 4]"] ;
684 -> 688 ;
689 [label="gini = 0.0\nsamples = 5\nvalue = [5, 0]"] ;
683 -> 689 ;
690 [label="day_of_week <= 1.07\ngini = 0.124\nsamples = 15\nvalue = [14, 1]"] ;
682 -> 690 ;
691 [label="gini = 0.0\nsamples = 13\nvalue = [13, 0]"] ;
690 -> 691 ;
692 [label="cons.conf.idx <= 1.867\ngini = 0.5\nsamples = 2\nvalue = [1, 1]"] ;
690 -> 692 ;
693 [label="gini = 0.0\nsamples = 1\nvalue = [0, 1]"] ;
692 -> 693 ;
694 [label="gini = 0.0\nsamples = 1\nvalue = [1, 0]"] ;
692 -> 694 ;
695 [label="age <= -1.586\ngini = 0.417\nsamples = 108\nvalue = [76, 32]"] ;
601 -> 695 ;
696 [label="euribor3m <= -1.211\ngini = 0.469\nsamples = 8\nvalue = [3, 5]"] ;
695 -> 696 ;
697 [label="duration <= 0.039\ngini = 0.375\nsamples = 4\nvalue = [3, 1]"] ;
696 -> 697 ;
698 [label="gini = 0.0\nsamples = 3\nvalue = [3, 0]"] ;
697 -> 698 ;
699 [label="gini = 0.0\nsamples = 1\nvalue = [0, 1]"] ;
697 -> 699 ;
700 [label="gini = 0.0\nsamples = 4\nvalue = [0, 4]"] ;
696 -> 700 ;
701 [label="month <= 1.409\ngini = 0.394\nsamples = 100\nvalue = [73, 27]"] ;
695 -> 701 ;
702 [label="housing <= 0.435\ngini = 0.43\nsamples = 80\nvalue = [55, 25]"] ;
701 -> 702 ;
703 [label="campaign <= -0.387\ngini = 0.49\nsamples = 35\nvalue = [20, 15]"] ;
702 -> 703 ;
704 [label="euribor3m <= -0.912\ngini = 0.363\nsamples = 21\nvalue = [16, 5]"] ;
703 -> 704 ;
705 [label="euribor3m <= -1.706\ngini = 0.486\nsamples = 12\nvalue = [7, 5]"] ;
704 -> 705 ;
706 [label="age <= 2.109\ngini = 0.219\nsamples = 8\nvalue = [7, 1]"] ;
705 -> 706 ;
707 [label="education <= 0.82\ngini = 0.444\nsamples = 3\nvalue = [2, 1]"] ;
706 -> 707 ;
708 [label="gini = 0.0\nsamples = 1\nvalue = [0, 1]"] ;
707 -> 708 ;
709 [label="gini = 0.0\nsamples = 2\nvalue = [2, 0]"] ;
707 -> 709 ;
710 [label="gini = 0.0\nsamples = 5\nvalue = [5, 0]"] ;
706 -> 710 ;
711 [label="gini = 0.0\nsamples = 4\nvalue = [0, 4]"] ;
705 -> 711 ;
712 [label="gini = 0.0\nsamples = 9\nvalue = [9, 0]"] ;
704 -> 712 ;
713 [label="age <= 1.437\ngini = 0.408\nsamples = 14\nvalue = [4, 10]"] ;
703 -> 713 ;
714 [label="euribor3m <= -1.801\ngini = 0.18\nsamples = 10\nvalue = [1, 9]"] ;
713 -> 714 ;
715 [label="gini = 0.0\nsamples = 1\nvalue = [1, 0]"] ;
714 -> 715 ;
716 [label="gini = 0.0\nsamples = 9\nvalue = [0, 9]"] ;
714 -> 716 ;
717 [label="housing <= -0.58\ngini = 0.375\nsamples = 4\nvalue = [3, 1]"] ;
713 -> 717 ;
718 [label="gini = 0.0\nsamples = 3\nvalue = [3, 0]"] ;
717 -> 718 ;
719 [label="gini = 0.0\nsamples = 1\nvalue = [0, 1]"] ;
717 -> 719 ;
720 [label="euribor3m <= -0.963\ngini = 0.346\nsamples = 45\nvalue = [35, 10]"] ;
702 -> 720 ;
721 [label="day_of_week <= 0.354\ngini = 0.472\nsamples = 21\nvalue = [13, 8]"] ;
720 -> 721 ;
722 [label="campaign <= -0.024\ngini = 0.497\nsamples = 13\nvalue = [6, 7]"] ;
721 -> 722 ;
723 [label="euribor3m <= -1.109\ngini = 0.375\nsamples = 8\nvalue = [2, 6]"] ;
722 -> 723 ;
724 [label="gini = 0.0\nsamples = 5\nvalue = [0, 5]"] ;
723 -> 724 ;
725 [label="job <= 0.911\ngini = 0.444\nsamples = 3\nvalue = [2, 1]"] ;
723 -> 725 ;
726 [label="gini = 0.0\nsamples = 1\nvalue = [0, 1]"] ;
725 -> 726 ;
727 [label="gini = 0.0\nsamples = 2\nvalue = [2, 0]"] ;
725 -> 727 ;
728 [label="job <= 1.885\ngini = 0.32\nsamples = 5\nvalue = [4, 1]"] ;
722 -> 728 ;
729 [label="gini = 0.0\nsamples = 4\nvalue = [4, 0]"] ;
728 -> 729 ;
730 [label="gini = 0.0\nsamples = 1\nvalue = [0, 1]"] ;
728 -> 730 ;
731 [label="month <= 0.332\ngini = 0.219\nsamples = 8\nvalue = [7, 1]"] ;
721 -> 731 ;
732 [label="gini = 0.0\nsamples = 7\nvalue = [7, 0]"] ;
731 -> 732 ;
733 [label="gini = 0.0\nsamples = 1\nvalue = [0, 1]"] ;
731 -> 733 ;
734 [label="age <= 2.589\ngini = 0.153\nsamples = 24\nvalue = [22, 2]"] ;
720 -> 734 ;
735 [label="age <= -1.442\ngini = 0.083\nsamples = 23\nvalue = [22, 1]"] ;
734 -> 735 ;
736 [label="euribor3m <= -0.788\ngini = 0.5\nsamples = 2\nvalue = [1, 1]"] ;
735 -> 736 ;
737 [label="gini = 0.0\nsamples = 1\nvalue = [0, 1]"] ;
736 -> 737 ;
738 [label="gini = 0.0\nsamples = 1\nvalue = [1, 0]"] ;
736 -> 738 ;
739 [label="gini = 0.0\nsamples = 21\nvalue = [21, 0]"] ;
735 -> 739 ;
740 [label="gini = 0.0\nsamples = 1\nvalue = [0, 1]"] ;
734 -> 740 ;
741 [label="age <= -0.434\ngini = 0.18\nsamples = 20\nvalue = [18, 2]"] ;
701 -> 741 ;
742 [label="age <= -1.058\ngini = 0.444\nsamples = 6\nvalue = [4, 2]"] ;
741 -> 742 ;
743 [label="gini = 0.0\nsamples = 4\nvalue = [4, 0]"] ;
742 -> 743 ;
744 [label="gini = 0.0\nsamples = 2\nvalue = [0, 2]"] ;
742 -> 744 ;
745 [label="gini = 0.0\nsamples = 14\nvalue = [14, 0]"] ;
741 -> 745 ;
746 [label="cons.price.idx <= -1.924\ngini = 0.479\nsamples = 953\nvalue = [378, 575]"] ;
350 -> 746 ;
747 [label="euribor3m <= -2.769\ngini = 0.5\nsamples = 326\nvalue = [162, 164]"] ;
746 -> 747 ;
748 [label="duration <= 1.084\ngini = 0.44\nsamples = 49\nvalue = [16, 33]"] ;
747 -> 748 ;
749 [label="duration <= 0.644\ngini = 0.36\nsamples = 34\nvalue = [8, 26]"] ;
748 -> 749 ;
750 [label="education <= 0.118\ngini = 0.454\nsamples = 23\nvalue = [8, 15]"] ;
749 -> 750 ;
751 [label="duration <= 0.136\ngini = 0.219\nsamples = 8\nvalue = [1, 7]"] ;
750 -> 751 ;
752 [label="gini = 0.0\nsamples = 1\nvalue = [1, 0]"] ;
751 -> 752 ;
753 [label="gini = 0.0\nsamples = 7\nvalue = [0, 7]"] ;
751 -> 753 ;
754 [label="euribor3m <= -2.864\ngini = 0.498\nsamples = 15\nvalue = [7, 8]"] ;
750 -> 754 ;
755 [label="duration <= 0.558\ngini = 0.32\nsamples = 5\nvalue = [4, 1]"] ;
754 -> 755 ;
756 [label="gini = 0.0\nsamples = 3\nvalue = [3, 0]"] ;
755 -> 756 ;
757 [label="campaign <= -0.387\ngini = 0.5\nsamples = 2\nvalue = [1, 1]"] ;
755 -> 757 ;
758 [label="gini = 0.0\nsamples = 1\nvalue = [0, 1]"] ;
757 -> 758 ;
759 [label="gini = 0.0\nsamples = 1\nvalue = [1, 0]"] ;
757 -> 759 ;
760 [label="loan <= 0.929\ngini = 0.42\nsamples = 10\nvalue = [3, 7]"] ;
754 -> 760 ;
761 [label="duration <= 0.533\ngini = 0.346\nsamples = 9\nvalue = [2, 7]"] ;
760 -> 761 ;
762 [label="job <= -0.897\ngini = 0.219\nsamples = 8\nvalue = [1, 7]"] ;
761 -> 762 ;
763 [label="marital <= 0.537\ngini = 0.5\nsamples = 2\nvalue = [1, 1]"] ;
762 -> 763 ;
764 [label="gini = 0.0\nsamples = 1\nvalue = [0, 1]"] ;
763 -> 764 ;
765 [label="gini = 0.0\nsamples = 1\nvalue = [1, 0]"] ;
763 -> 765 ;
766 [label="gini = 0.0\nsamples = 6\nvalue = [0, 6]"] ;
762 -> 766 ;
767 [label="gini = 0.0\nsamples = 1\nvalue = [1, 0]"] ;
761 -> 767 ;
768 [label="gini = 0.0\nsamples = 1\nvalue = [1, 0]"] ;
760 -> 768 ;
769 [label="gini = 0.0\nsamples = 11\nvalue = [0, 11]"] ;
749 -> 769 ;
770 [label="job <= -0.062\ngini = 0.498\nsamples = 15\nvalue = [8, 7]"] ;
748 -> 770 ;
771 [label="duration <= 2.928\ngini = 0.375\nsamples = 8\nvalue = [2, 6]"] ;
770 -> 771 ;
772 [label="gini = 0.0\nsamples = 6\nvalue = [0, 6]"] ;
771 -> 772 ;
773 [label="gini = 0.0\nsamples = 2\nvalue = [2, 0]"] ;
771 -> 773 ;
774 [label="duration <= 4.24\ngini = 0.245\nsamples = 7\nvalue = [6, 1]"] ;
770 -> 774 ;
775 [label="gini = 0.0\nsamples = 6\nvalue = [6, 0]"] ;
774 -> 775 ;
776 [label="gini = 0.0\nsamples = 1\nvalue = [0, 1]"] ;
774 -> 776 ;
777 [label="duration <= 0.098\ngini = 0.499\nsamples = 277\nvalue = [146, 131]"] ;
747 -> 777 ;
778 [label="gini = 0.0\nsamples = 5\nvalue = [0, 5]"] ;
777 -> 778 ;
779 [label="duration <= 0.125\ngini = 0.497\nsamples = 272\nvalue = [146, 126]"] ;
777 -> 779 ;
780 [label="age <= -0.338\ngini = 0.18\nsamples = 10\nvalue = [9, 1]"] ;
779 -> 780 ;
781 [label="age <= -0.962\ngini = 0.5\nsamples = 2\nvalue = [1, 1]"] ;
780 -> 781 ;
782 [label="gini = 0.0\nsamples = 1\nvalue = [1, 0]"] ;
781 -> 782 ;
783 [label="gini = 0.0\nsamples = 1\nvalue = [0, 1]"] ;
781 -> 783 ;
784 [label="gini = 0.0\nsamples = 8\nvalue = [8, 0]"] ;
780 -> 784 ;
785 [label="job <= -0.062\ngini = 0.499\nsamples = 262\nvalue = [137, 125]"] ;
779 -> 785 ;
786 [label="euribor3m <= -0.992\ngini = 0.493\nsamples = 113\nvalue = [50, 63]"] ;
785 -> 786 ;
787 [label="euribor3m <= -1.902\ngini = 0.499\nsamples = 102\nvalue = [49, 53]"] ;
786 -> 787 ;
788 [label="duration <= 1.004\ngini = 0.48\nsamples = 75\nvalue = [30, 45]"] ;
787 -> 788 ;
789 [label="duration <= 0.592\ngini = 0.387\nsamples = 42\nvalue = [11, 31]"] ;
788 -> 789 ;
790 [label="age <= -1.106\ngini = 0.473\nsamples = 26\nvalue = [10, 16]"] ;
789 -> 790 ;
791 [label="gini = 0.0\nsamples = 6\nvalue = [0, 6]"] ;
790 -> 791 ;
792 [label="euribor3m <= -2.048\ngini = 0.5\nsamples = 20\nvalue = [10, 10]"] ;
790 -> 792 ;
793 [label="euribor3m <= -2.609\ngini = 0.48\nsamples = 15\nvalue = [9, 6]"] ;
792 -> 793 ;
794 [label="gini = 0.0\nsamples = 1\nvalue = [0, 1]"] ;
793 -> 794 ;
795 [label="age <= 1.677\ngini = 0.459\nsamples = 14\nvalue = [9, 5]"] ;
793 -> 795 ;
796 [label="duration <= 0.155\ngini = 0.426\nsamples = 13\nvalue = [9, 4]"] ;
795 -> 796 ;
797 [label="gini = 0.0\nsamples = 1\nvalue = [0, 1]"] ;
796 -> 797 ;
798 [label="campaign <= -0.387\ngini = 0.375\nsamples = 12\nvalue = [9, 3]"] ;
796 -> 798 ;
799 [label="duration <= 0.584\ngini = 0.469\nsamples = 8\nvalue = [5, 3]"] ;
798 -> 799 ;
800 [label="duration <= 0.349\ngini = 0.408\nsamples = 7\nvalue = [5, 2]"] ;
799 -> 800 ;
801 [label="duration <= 0.311\ngini = 0.5\nsamples = 4\nvalue = [2, 2]"] ;
800 -> 801 ;
802 [label="gini = 0.0\nsamples = 2\nvalue = [2, 0]"] ;
801 -> 802 ;
803 [label="gini = 0.0\nsamples = 2\nvalue = [0, 2]"] ;
801 -> 803 ;
804 [label="gini = 0.0\nsamples = 3\nvalue = [3, 0]"] ;
800 -> 804 ;
805 [label="gini = 0.0\nsamples = 1\nvalue = [0, 1]"] ;
799 -> 805 ;
806 [label="gini = 0.0\nsamples = 4\nvalue = [4, 0]"] ;
798 -> 806 ;
807 [label="gini = 0.0\nsamples = 1\nvalue = [0, 1]"] ;
795 -> 807 ;
808 [label="duration <= 0.213\ngini = 0.32\nsamples = 5\nvalue = [1, 4]"] ;
792 -> 808 ;
809 [label="gini = 0.0\nsamples = 1\nvalue = [1, 0]"] ;
808 -> 809 ;
810 [label="gini = 0.0\nsamples = 4\nvalue = [0, 4]"] ;
808 -> 810 ;
811 [label="age <= 2.493\ngini = 0.117\nsamples = 16\nvalue = [1, 15]"] ;
789 -> 811 ;
812 [label="gini = 0.0\nsamples = 15\nvalue = [0, 15]"] ;
811 -> 812 ;
813 [label="gini = 0.0\nsamples = 1\nvalue = [1, 0]"] ;
811 -> 813 ;
814 [label="cons.price.idx <= -2.284\ngini = 0.489\nsamples = 33\nvalue = [19, 14]"] ;
788 -> 814 ;
815 [label="loan <= 0.929\ngini = 0.472\nsamples = 21\nvalue = [8, 13]"] ;
814 -> 815 ;
816 [label="euribor3m <= -2.019\ngini = 0.401\nsamples = 18\nvalue = [5, 13]"] ;
815 -> 816 ;
817 [label="day_of_week <= 1.07\ngini = 0.26\nsamples = 13\nvalue = [2, 11]"] ;
816 -> 817 ;
818 [label="campaign <= -0.024\ngini = 0.165\nsamples = 11\nvalue = [1, 10]"] ;
817 -> 818 ;
819 [label="gini = 0.0\nsamples = 8\nvalue = [0, 8]"] ;
818 -> 819 ;
820 [label="age <= 0.574\ngini = 0.444\nsamples = 3\nvalue = [1, 2]"] ;
818 -> 820 ;
821 [label="gini = 0.0\nsamples = 2\nvalue = [0, 2]"] ;
820 -> 821 ;
822 [label="gini = 0.0\nsamples = 1\nvalue = [1, 0]"] ;
820 -> 822 ;
823 [label="contact <= 0.28\ngini = 0.5\nsamples = 2\nvalue = [1, 1]"] ;
817 -> 823 ;
824 [label="gini = 0.0\nsamples = 1\nvalue = [0, 1]"] ;
823 -> 824 ;
825 [label="gini = 0.0\nsamples = 1\nvalue = [1, 0]"] ;
823 -> 825 ;
826 [label="euribor3m <= -1.975\ngini = 0.48\nsamples = 5\nvalue = [3, 2]"] ;
816 -> 826 ;
827 [label="gini = 0.0\nsamples = 2\nvalue = [2, 0]"] ;
826 -> 827 ;
828 [label="age <= -0.962\ngini = 0.444\nsamples = 3\nvalue = [1, 2]"] ;
826 -> 828 ;
829 [label="housing <= -0.073\ngini = 0.5\nsamples = 2\nvalue = [1, 1]"] ;
828 -> 829 ;
830 [label="gini = 0.0\nsamples = 1\nvalue = [0, 1]"] ;
829 -> 830 ;
831 [label="gini = 0.0\nsamples = 1\nvalue = [1, 0]"] ;
829 -> 831 ;
832 [label="gini = 0.0\nsamples = 1\nvalue = [0, 1]"] ;
828 -> 832 ;
833 [label="gini = 0.0\nsamples = 3\nvalue = [3, 0]"] ;
815 -> 833 ;
834 [label="contact <= 0.28\ngini = 0.153\nsamples = 12\nvalue = [11, 1]"] ;
814 -> 834 ;
835 [label="gini = 0.0\nsamples = 10\nvalue = [10, 0]"] ;
834 -> 835 ;
836 [label="poutcome <= -1.185\ngini = 0.5\nsamples = 2\nvalue = [1, 1]"] ;
834 -> 836 ;
837 [label="gini = 0.0\nsamples = 1\nvalue = [1, 0]"] ;
836 -> 837 ;
838 [label="gini = 0.0\nsamples = 1\nvalue = [0, 1]"] ;
836 -> 838 ;
839 [label="duration <= 1.239\ngini = 0.417\nsamples = 27\nvalue = [19, 8]"] ;
787 -> 839 ;
840 [label="duration <= 0.192\ngini = 0.198\nsamples = 18\nvalue = [16, 2]"] ;
839 -> 840 ;
841 [label="gini = 0.0\nsamples = 1\nvalue = [0, 1]"] ;
840 -> 841 ;
842 [label="day_of_week <= 1.07\ngini = 0.111\nsamples = 17\nvalue = [16, 1]"] ;
840 -> 842 ;
843 [label="gini = 0.0\nsamples = 15\nvalue = [15, 0]"] ;
842 -> 843 ;
844 [label="previous <= 0.661\ngini = 0.5\nsamples = 2\nvalue = [1, 1]"] ;
842 -> 844 ;
845 [label="gini = 0.0\nsamples = 1\nvalue = [0, 1]"] ;
844 -> 845 ;
846 [label="gini = 0.0\nsamples = 1\nvalue = [1, 0]"] ;
844 -> 846 ;
847 [label="duration <= 2.023\ngini = 0.444\nsamples = 9\nvalue = [3, 6]"] ;
839 -> 847 ;
848 [label="gini = 0.0\nsamples = 3\nvalue = [0, 3]"] ;
847 -> 848 ;
849 [label="euribor3m <= -1.728\ngini = 0.5\nsamples = 6\nvalue = [3, 3]"] ;
847 -> 849 ;
850 [label="gini = 0.0\nsamples = 2\nvalue = [2, 0]"] ;
849 -> 850 ;
851 [label="duration <= 2.492\ngini = 0.375\nsamples = 4\nvalue = [1, 3]"] ;
849 -> 851 ;
852 [label="gini = 0.0\nsamples = 1\nvalue = [1, 0]"] ;
851 -> 852 ;
853 [label="gini = 0.0\nsamples = 3\nvalue = [0, 3]"] ;
851 -> 853 ;
854 [label="poutcome <= -1.185\ngini = 0.165\nsamples = 11\nvalue = [1, 10]"] ;
786 -> 854 ;
855 [label="gini = 0.0\nsamples = 1\nvalue = [1, 0]"] ;
854 -> 855 ;
856 [label="gini = 0.0\nsamples = 10\nvalue = [0, 10]"] ;
854 -> 856 ;
857 [label="contact <= 0.28\ngini = 0.486\nsamples = 149\nvalue = [87, 62]"] ;
785 -> 857 ;
858 [label="age <= -1.586\ngini = 0.495\nsamples = 134\nvalue = [74, 60]"] ;
857 -> 858 ;
859 [label="campaign <= -0.387\ngini = 0.219\nsamples = 8\nvalue = [1, 7]"] ;
858 -> 859 ;
860 [label="gini = 0.0\nsamples = 6\nvalue = [0, 6]"] ;
859 -> 860 ;
861 [label="poutcome <= -1.185\ngini = 0.5\nsamples = 2\nvalue = [1, 1]"] ;
859 -> 861 ;
862 [label="gini = 0.0\nsamples = 1\nvalue = [0, 1]"] ;
861 -> 862 ;
863 [label="gini = 0.0\nsamples = 1\nvalue = [1, 0]"] ;
861 -> 863 ;
864 [label="housing <= -0.58\ngini = 0.487\nsamples = 126\nvalue = [73, 53]"] ;
858 -> 864 ;
865 [label="age <= -1.202\ngini = 0.497\nsamples = 54\nvalue = [25, 29]"] ;
864 -> 865 ;
866 [label="gini = 0.0\nsamples = 4\nvalue = [4, 0]"] ;
865 -> 866 ;
867 [label="euribor3m <= -1.298\ngini = 0.487\nsamples = 50\nvalue = [21, 29]"] ;
865 -> 867 ;
868 [label="duration <= 3.457\ngini = 0.473\nsamples = 47\nvalue = [18, 29]"] ;
867 -> 868 ;
869 [label="duration <= 1.067\ngini = 0.449\nsamples = 44\nvalue = [15, 29]"] ;
868 -> 869 ;
870 [label="education <= 0.82\ngini = 0.498\nsamples = 32\nvalue = [15, 17]"] ;
869 -> 870 ;
871 [label="age <= 3.213\ngini = 0.388\nsamples = 19\nvalue = [5, 14]"] ;
870 -> 871 ;
872 [label="age <= -0.674\ngini = 0.291\nsamples = 17\nvalue = [3, 14]"] ;
871 -> 872 ;
873 [label="day_of_week <= 1.07\ngini = 0.444\nsamples = 3\nvalue = [2, 1]"] ;
872 -> 873 ;
874 [label="gini = 0.0\nsamples = 2\nvalue = [2, 0]"] ;
873 -> 874 ;
875 [label="gini = 0.0\nsamples = 1\nvalue = [0, 1]"] ;
873 -> 875 ;
876 [label="campaign <= 0.52\ngini = 0.133\nsamples = 14\nvalue = [1, 13]"] ;
872 -> 876 ;
877 [label="gini = 0.0\nsamples = 13\nvalue = [0, 13]"] ;
876 -> 877 ;
878 [label="gini = 0.0\nsamples = 1\nvalue = [1, 0]"] ;
876 -> 878 ;
879 [label="gini = 0.0\nsamples = 2\nvalue = [2, 0]"] ;
871 -> 879 ;
880 [label="age <= 0.046\ngini = 0.355\nsamples = 13\nvalue = [10, 3]"] ;
870 -> 880 ;
881 [label="month <= -0.962\ngini = 0.5\nsamples = 6\nvalue = [3, 3]"] ;
880 -> 881 ;
882 [label="gini = 0.0\nsamples = 3\nvalue = [3, 0]"] ;
881 -> 882 ;
883 [label="gini = 0.0\nsamples = 3\nvalue = [0, 3]"] ;
881 -> 883 ;
884 [label="gini = 0.0\nsamples = 7\nvalue = [7, 0]"] ;
880 -> 884 ;
885 [label="gini = 0.0\nsamples = 12\nvalue = [0, 12]"] ;
869 -> 885 ;
886 [label="gini = 0.0\nsamples = 3\nvalue = [3, 0]"] ;
868 -> 886 ;
887 [label="gini = 0.0\nsamples = 3\nvalue = [3, 0]"] ;
867 -> 887 ;
888 [label="marital <= -1.105\ngini = 0.444\nsamples = 72\nvalue = [48, 24]"] ;
864 -> 888 ;
889 [label="gini = 0.0\nsamples = 2\nvalue = [0, 2]"] ;
888 -> 889 ;
890 [label="duration <= 0.477\ngini = 0.431\nsamples = 70\nvalue = [48, 22]"] ;
888 -> 890 ;
891 [label="euribor3m <= -1.043\ngini = 0.287\nsamples = 23\nvalue = [19, 4]"] ;
890 -> 891 ;
892 [label="euribor3m <= -2.718\ngini = 0.172\nsamples = 21\nvalue = [19, 2]"] ;
891 -> 892 ;
893 [label="gini = 0.0\nsamples = 1\nvalue = [0, 1]"] ;
892 -> 893 ;
894 [label="age <= 3.309\ngini = 0.095\nsamples = 20\nvalue = [19, 1]"] ;
892 -> 894 ;
895 [label="gini = 0.0\nsamples = 17\nvalue = [17, 0]"] ;
894 -> 895 ;
896 [label="education <= -0.35\ngini = 0.444\nsamples = 3\nvalue = [2, 1]"] ;
894 -> 896 ;
897 [label="gini = 0.0\nsamples = 1\nvalue = [0, 1]"] ;
896 -> 897 ;
898 [label="gini = 0.0\nsamples = 2\nvalue = [2, 0]"] ;
896 -> 898 ;
899 [label="gini = 0.0\nsamples = 2\nvalue = [0, 2]"] ;
891 -> 899 ;
900 [label="cons.price.idx <= -2.463\ngini = 0.473\nsamples = 47\nvalue = [29, 18]"] ;
890 -> 900 ;
901 [label="education <= 0.118\ngini = 0.48\nsamples = 20\nvalue = [8, 12]"] ;
900 -> 901 ;
902 [label="duration <= 0.736\ngini = 0.198\nsamples = 9\nvalue = [1, 8]"] ;
901 -> 902 ;
903 [label="gini = 0.0\nsamples = 1\nvalue = [1, 0]"] ;
902 -> 903 ;
904 [label="gini = 0.0\nsamples = 8\nvalue = [0, 8]"] ;
902 -> 904 ;
905 [label="euribor3m <= -2.034\ngini = 0.463\nsamples = 11\nvalue = [7, 4]"] ;
901 -> 905 ;
906 [label="gini = 0.0\nsamples = 3\nvalue = [0, 3]"] ;
905 -> 906 ;
907 [label="campaign <= -0.387\ngini = 0.219\nsamples = 8\nvalue = [7, 1]"] ;
905 -> 907 ;
908 [label="euribor3m <= -1.91\ngini = 0.5\nsamples = 2\nvalue = [1, 1]"] ;
907 -> 908 ;
909 [label="gini = 0.0\nsamples = 1\nvalue = [1, 0]"] ;
908 -> 909 ;
910 [label="gini = 0.0\nsamples = 1\nvalue = [0, 1]"] ;
908 -> 910 ;
911 [label="gini = 0.0\nsamples = 6\nvalue = [6, 0]"] ;
907 -> 911 ;
912 [label="campaign <= -0.024\ngini = 0.346\nsamples = 27\nvalue = [21, 6]"] ;
900 -> 912 ;
913 [label="duration <= 0.487\ngini = 0.278\nsamples = 24\nvalue = [20, 4]"] ;
912 -> 913 ;
914 [label="gini = 0.0\nsamples = 1\nvalue = [0, 1]"] ;
913 -> 914 ;
915 [label="job <= 0.216\ngini = 0.227\nsamples = 23\nvalue = [20, 3]"] ;
913 -> 915 ;
916 [label="duration <= 2.455\ngini = 0.5\nsamples = 2\nvalue = [1, 1]"] ;
915 -> 916 ;
917 [label="gini = 0.0\nsamples = 1\nvalue = [1, 0]"] ;
916 -> 917 ;
918 [label="gini = 0.0\nsamples = 1\nvalue = [0, 1]"] ;
916 -> 918 ;
919 [label="age <= 1.149\ngini = 0.172\nsamples = 21\nvalue = [19, 2]"] ;
915 -> 919 ;
920 [label="gini = 0.0\nsamples = 12\nvalue = [12, 0]"] ;
919 -> 920 ;
921 [label="month <= 1.84\ngini = 0.346\nsamples = 9\nvalue = [7, 2]"] ;
919 -> 921 ;
922 [label="gini = 0.0\nsamples = 6\nvalue = [6, 0]"] ;
921 -> 922 ;
923 [label="duration <= 2.212\ngini = 0.444\nsamples = 3\nvalue = [1, 2]"] ;
921 -> 923 ;
924 [label="gini = 0.0\nsamples = 2\nvalue = [0, 2]"] ;
923 -> 924 ;
925 [label="gini = 0.0\nsamples = 1\nvalue = [1, 0]"] ;
923 -> 925 ;
926 [label="cons.conf.idx <= 1.951\ngini = 0.444\nsamples = 3\nvalue = [1, 2]"] ;
912 -> 926 ;
927 [label="gini = 0.0\nsamples = 1\nvalue = [1, 0]"] ;
926 -> 927 ;
928 [label="gini = 0.0\nsamples = 2\nvalue = [0, 2]"] ;
926 -> 928 ;
929 [label="euribor3m <= -2.58\ngini = 0.231\nsamples = 15\nvalue = [13, 2]"] ;
857 -> 929 ;
930 [label="gini = 0.0\nsamples = 1\nvalue = [0, 1]"] ;
929 -> 930 ;
931 [label="job <= 0.216\ngini = 0.133\nsamples = 14\nvalue = [13, 1]"] ;
929 -> 931 ;
932 [label="day_of_week <= -0.003\ngini = 0.5\nsamples = 2\nvalue = [1, 1]"] ;
931 -> 932 ;
933 [label="gini = 0.0\nsamples = 1\nvalue = [0, 1]"] ;
932 -> 933 ;
934 [label="gini = 0.0\nsamples = 1\nvalue = [1, 0]"] ;
932 -> 934 ;
935 [label="gini = 0.0\nsamples = 12\nvalue = [12, 0]"] ;
931 -> 935 ;
936 [label="duration <= 1.331\ngini = 0.452\nsamples = 627\nvalue = [216, 411]"] ;
746 -> 936 ;
937 [label="previous <= 6.723\ngini = 0.472\nsamples = 464\nvalue = [177, 287]"] ;
936 -> 937 ;
938 [label="contact <= 0.28\ngini = 0.467\nsamples = 454\nvalue = [169, 285]"] ;
937 -> 938 ;
939 [label="euribor3m <= -3.599\ngini = 0.454\nsamples = 393\nvalue = [137, 256]"] ;
938 -> 939 ;
940 [label="default <= 0.716\ngini = 0.48\nsamples = 20\nvalue = [12, 8]"] ;
939 -> 940 ;
941 [label="education <= 0.118\ngini = 0.444\nsamples = 18\nvalue = [12, 6]"] ;
940 -> 941 ;
942 [label="gini = 0.0\nsamples = 4\nvalue = [4, 0]"] ;
941 -> 942 ;
943 [label="age <= 1.629\ngini = 0.49\nsamples = 14\nvalue = [8, 6]"] ;
941 -> 943 ;
944 [label="age <= -0.722\ngini = 0.444\nsamples = 12\nvalue = [8, 4]"] ;
943 -> 944 ;
945 [label="duration <= 0.433\ngini = 0.48\nsamples = 5\nvalue = [2, 3]"] ;
944 -> 945 ;
946 [label="gini = 0.0\nsamples = 2\nvalue = [0, 2]"] ;
945 -> 946 ;
947 [label="age <= -1.298\ngini = 0.444\nsamples = 3\nvalue = [2, 1]"] ;
945 -> 947 ;
948 [label="gini = 0.0\nsamples = 1\nvalue = [1, 0]"] ;
947 -> 948 ;
949 [label="duration <= 0.46\ngini = 0.5\nsamples = 2\nvalue = [1, 1]"] ;
947 -> 949 ;
950 [label="gini = 0.0\nsamples = 1\nvalue = [0, 1]"] ;
949 -> 950 ;
951 [label="gini = 0.0\nsamples = 1\nvalue = [1, 0]"] ;
949 -> 951 ;
952 [label="euribor3m <= -3.614\ngini = 0.245\nsamples = 7\nvalue = [6, 1]"] ;
944 -> 952 ;
953 [label="gini = 0.0\nsamples = 5\nvalue = [5, 0]"] ;
952 -> 953 ;
954 [label="age <= 0.238\ngini = 0.5\nsamples = 2\nvalue = [1, 1]"] ;
952 -> 954 ;
955 [label="gini = 0.0\nsamples = 1\nvalue = [0, 1]"] ;
954 -> 955 ;
956 [label="gini = 0.0\nsamples = 1\nvalue = [1, 0]"] ;
954 -> 956 ;
957 [label="gini = 0.0\nsamples = 2\nvalue = [0, 2]"] ;
943 -> 957 ;
958 [label="gini = 0.0\nsamples = 2\nvalue = [0, 2]"] ;
940 -> 958 ;
959 [label="euribor3m <= -1.021\ngini = 0.446\nsamples = 373\nvalue = [125, 248]"] ;
939 -> 959 ;
960 [label="poutcome <= -1.185\ngini = 0.418\nsamples = 279\nvalue = [83, 196]"] ;
959 -> 960 ;
961 [label="campaign <= 0.701\ngini = 0.475\nsamples = 103\nvalue = [40, 63]"] ;
960 -> 961 ;
962 [label="euribor3m <= -2.099\ngini = 0.463\nsamples = 99\nvalue = [36, 63]"] ;
961 -> 962 ;
963 [label="previous <= 4.702\ngini = 0.361\nsamples = 55\nvalue = [13, 42]"] ;
962 -> 963 ;
964 [label="age <= -1.106\ngini = 0.3\nsamples = 49\nvalue = [9, 40]"] ;
963 -> 964 ;
965 [label="euribor3m <= -3.279\ngini = 0.473\nsamples = 13\nvalue = [5, 8]"] ;
964 -> 965 ;
966 [label="gini = 0.0\nsamples = 2\nvalue = [2, 0]"] ;
965 -> 966 ;
967 [label="duration <= 0.163\ngini = 0.397\nsamples = 11\nvalue = [3, 8]"] ;
965 -> 967 ;
968 [label="housing <= -0.073\ngini = 0.444\nsamples = 3\nvalue = [2, 1]"] ;
967 -> 968 ;
969 [label="gini = 0.0\nsamples = 2\nvalue = [2, 0]"] ;
968 -> 969 ;
970 [label="gini = 0.0\nsamples = 1\nvalue = [0, 1]"] ;
968 -> 970 ;
971 [label="campaign <= -0.387\ngini = 0.219\nsamples = 8\nvalue = [1, 7]"] ;
967 -> 971 ;
972 [label="gini = 0.0\nsamples = 7\nvalue = [0, 7]"] ;
971 -> 972 ;
973 [label="gini = 0.0\nsamples = 1\nvalue = [1, 0]"] ;
971 -> 973 ;
974 [label="age <= 2.685\ngini = 0.198\nsamples = 36\nvalue = [4, 32]"] ;
964 -> 974 ;
975 [label="duration <= 0.703\ngini = 0.161\nsamples = 34\nvalue = [3, 31]"] ;
974 -> 975 ;
976 [label="gini = 0.0\nsamples = 17\nvalue = [0, 17]"] ;
975 -> 976 ;
977 [label="nr.employed <= -2.585\ngini = 0.291\nsamples = 17\nvalue = [3, 14]"] ;
975 -> 977 ;
978 [label="gini = 0.0\nsamples = 1\nvalue = [1, 0]"] ;
977 -> 978 ;
979 [label="duration <= 0.795\ngini = 0.219\nsamples = 16\nvalue = [2, 14]"] ;
977 -> 979 ;
980 [label="gini = 0.0\nsamples = 1\nvalue = [1, 0]"] ;
979 -> 980 ;
981 [label="day_of_week <= 1.07\ngini = 0.124\nsamples = 15\nvalue = [1, 14]"] ;
979 -> 981 ;
982 [label="gini = 0.0\nsamples = 13\nvalue = [0, 13]"] ;
981 -> 982 ;
983 [label="duration <= 0.973\ngini = 0.5\nsamples = 2\nvalue = [1, 1]"] ;
981 -> 983 ;
984 [label="gini = 0.0\nsamples = 1\nvalue = [0, 1]"] ;
983 -> 984 ;
985 [label="gini = 0.0\nsamples = 1\nvalue = [1, 0]"] ;
983 -> 985 ;
986 [label="age <= 2.973\ngini = 0.5\nsamples = 2\nvalue = [1, 1]"] ;
974 -> 986 ;
987 [label="gini = 0.0\nsamples = 1\nvalue = [1, 0]"] ;
986 -> 987 ;
988 [label="gini = 0.0\nsamples = 1\nvalue = [0, 1]"] ;
986 -> 988 ;
989 [label="pdays <= -1.243\ngini = 0.444\nsamples = 6\nvalue = [4, 2]"] ;
963 -> 989 ;
990 [label="gini = 0.0\nsamples = 2\nvalue = [0, 2]"] ;
989 -> 990 ;
991 [label="gini = 0.0\nsamples = 4\nvalue = [4, 0]"] ;
989 -> 991 ;
992 [label="pdays <= -0.982\ngini = 0.499\nsamples = 44\nvalue = [23, 21]"] ;
962 -> 992 ;
993 [label="gini = 0.0\nsamples = 4\nvalue = [0, 4]"] ;
992 -> 993 ;
994 [label="month <= 1.409\ngini = 0.489\nsamples = 40\nvalue = [23, 17]"] ;
992 -> 994 ;
995 [label="duration <= 1.073\ngini = 0.346\nsamples = 18\nvalue = [14, 4]"] ;
994 -> 995 ;
996 [label="duration <= 0.395\ngini = 0.219\nsamples = 16\nvalue = [14, 2]"] ;
995 -> 996 ;
997 [label="euribor3m <= -1.684\ngini = 0.48\nsamples = 5\nvalue = [3, 2]"] ;
996 -> 997 ;
998 [label="gini = 0.0\nsamples = 3\nvalue = [3, 0]"] ;
997 -> 998 ;
999 [label="gini = 0.0\nsamples = 2\nvalue = [0, 2]"] ;
997 -> 999 ;
1000 [label="gini = 0.0\nsamples = 11\nvalue = [11, 0]"] ;
996 -> 1000 ;
1001 [label="gini = 0.0\nsamples = 2\nvalue = [0, 2]"] ;
995 -> 1001 ;
1002 [label="education <= 1.288\ngini = 0.483\nsamples = 22\nvalue = [9, 13]"] ;
994 -> 1002 ;
1003 [label="day_of_week <= -1.077\ngini = 0.455\nsamples = 20\nvalue = [7, 13]"] ;
1002 -> 1003 ;
1004 [label="gini = 0.0\nsamples = 4\nvalue = [0, 4]"] ;
1003 -> 1004 ;
1005 [label="loan <= 0.929\ngini = 0.492\nsamples = 16\nvalue = [7, 9]"] ;
1003 -> 1005 ;
1006 [label="age <= 1.006\ngini = 0.497\nsamples = 13\nvalue = [7, 6]"] ;
1005 -> 1006 ;
1007 [label="duration <= 0.268\ngini = 0.375\nsamples = 8\nvalue = [6, 2]"] ;
1006 -> 1007 ;
1008 [label="duration <= 0.155\ngini = 0.444\nsamples = 3\nvalue = [1, 2]"] ;
1007 -> 1008 ;
1009 [label="gini = 0.0\nsamples = 1\nvalue = [1, 0]"] ;
1008 -> 1009 ;
1010 [label="gini = 0.0\nsamples = 2\nvalue = [0, 2]"] ;
1008 -> 1010 ;
1011 [label="gini = 0.0\nsamples = 5\nvalue = [5, 0]"] ;
1007 -> 1011 ;
1012 [label="duration <= 0.481\ngini = 0.32\nsamples = 5\nvalue = [1, 4]"] ;
1006 -> 1012 ;
1013 [label="gini = 0.0\nsamples = 1\nvalue = [1, 0]"] ;
1012 -> 1013 ;
1014 [label="gini = 0.0\nsamples = 4\nvalue = [0, 4]"] ;
1012 -> 1014 ;
1015 [label="gini = 0.0\nsamples = 3\nvalue = [0, 3]"] ;
1005 -> 1015 ;
1016 [label="gini = 0.0\nsamples = 2\nvalue = [2, 0]"] ;
1002 -> 1016 ;
1017 [label="gini = 0.0\nsamples = 4\nvalue = [4, 0]"] ;
961 -> 1017 ;
1018 [label="euribor3m <= -2.696\ngini = 0.369\nsamples = 176\nvalue = [43, 133]"] ;
960 -> 1018 ;
1019 [label="job <= 1.05\ngini = 0.442\nsamples = 85\nvalue = [28, 57]"] ;
1018 -> 1019 ;
1020 [label="euribor3m <= -3.031\ngini = 0.348\nsamples = 58\nvalue = [13, 45]"] ;
1019 -> 1020 ;
1021 [label="day_of_week <= -0.361\ngini = 0.254\nsamples = 47\nvalue = [7, 40]"] ;
1020 -> 1021 ;
1022 [label="housing <= 0.435\ngini = 0.444\nsamples = 18\nvalue = [6, 12]"] ;
1021 -> 1022 ;
1023 [label="gini = 0.0\nsamples = 6\nvalue = [0, 6]"] ;
1022 -> 1023 ;
1024 [label="euribor3m <= -3.461\ngini = 0.5\nsamples = 12\nvalue = [6, 6]"] ;
1022 -> 1024 ;
1025 [label="gini = 0.0\nsamples = 4\nvalue = [0, 4]"] ;
1024 -> 1025 ;
1026 [label="age <= -0.818\ngini = 0.375\nsamples = 8\nvalue = [6, 2]"] ;
1024 -> 1026 ;
1027 [label="gini = 0.0\nsamples = 2\nvalue = [0, 2]"] ;
1026 -> 1027 ;
1028 [label="gini = 0.0\nsamples = 6\nvalue = [6, 0]"] ;
1026 -> 1028 ;
1029 [label="duration <= 1.234\ngini = 0.067\nsamples = 29\nvalue = [1, 28]"] ;
1021 -> 1029 ;
1030 [label="gini = 0.0\nsamples = 27\nvalue = [0, 27]"] ;
1029 -> 1030 ;
1031 [label="housing <= -0.073\ngini = 0.5\nsamples = 2\nvalue = [1, 1]"] ;
1029 -> 1031 ;
1032 [label="gini = 0.0\nsamples = 1\nvalue = [1, 0]"] ;
1031 -> 1032 ;
1033 [label="gini = 0.0\nsamples = 1\nvalue = [0, 1]"] ;
1031 -> 1033 ;
1034 [label="euribor3m <= -2.958\ngini = 0.496\nsamples = 11\nvalue = [6, 5]"] ;
1020 -> 1034 ;
1035 [label="day_of_week <= -1.077\ngini = 0.375\nsamples = 8\nvalue = [6, 2]"] ;
1034 -> 1035 ;
1036 [label="gini = 0.0\nsamples = 1\nvalue = [0, 1]"] ;
1035 -> 1036 ;
1037 [label="euribor3m <= -2.973\ngini = 0.245\nsamples = 7\nvalue = [6, 1]"] ;
1035 -> 1037 ;
1038 [label="gini = 0.0\nsamples = 5\nvalue = [5, 0]"] ;
1037 -> 1038 ;
1039 [label="education <= 0.352\ngini = 0.5\nsamples = 2\nvalue = [1, 1]"] ;
1037 -> 1039 ;
1040 [label="gini = 0.0\nsamples = 1\nvalue = [0, 1]"] ;
1039 -> 1040 ;
1041 [label="gini = 0.0\nsamples = 1\nvalue = [1, 0]"] ;
1039 -> 1041 ;
1042 [label="gini = 0.0\nsamples = 3\nvalue = [0, 3]"] ;
1034 -> 1042 ;
1043 [label="day_of_week <= 0.354\ngini = 0.494\nsamples = 27\nvalue = [15, 12]"] ;
1019 -> 1043 ;
1044 [label="euribor3m <= -3.017\ngini = 0.26\nsamples = 13\nvalue = [11, 2]"] ;
1043 -> 1044 ;
1045 [label="gini = 0.0\nsamples = 7\nvalue = [7, 0]"] ;
1044 -> 1045 ;
1046 [label="campaign <= -0.387\ngini = 0.444\nsamples = 6\nvalue = [4, 2]"] ;
1044 -> 1046 ;
1047 [label="gini = 0.0\nsamples = 4\nvalue = [4, 0]"] ;
1046 -> 1047 ;
1048 [label="gini = 0.0\nsamples = 2\nvalue = [0, 2]"] ;
1046 -> 1048 ;
1049 [label="job <= 1.329\ngini = 0.408\nsamples = 14\nvalue = [4, 10]"] ;
1043 -> 1049 ;
1050 [label="campaign <= -0.387\ngini = 0.375\nsamples = 4\nvalue = [3, 1]"] ;
1049 -> 1050 ;
1051 [label="gini = 0.0\nsamples = 3\nvalue = [3, 0]"] ;
1050 -> 1051 ;
1052 [label="gini = 0.0\nsamples = 1\nvalue = [0, 1]"] ;
1050 -> 1052 ;
1053 [label="age <= 1.485\ngini = 0.18\nsamples = 10\nvalue = [1, 9]"] ;
1049 -> 1053 ;
1054 [label="gini = 0.0\nsamples = 9\nvalue = [0, 9]"] ;
1053 -> 1054 ;
1055 [label="gini = 0.0\nsamples = 1\nvalue = [1, 0]"] ;
1053 -> 1055 ;
1056 [label="loan <= 0.929\ngini = 0.275\nsamples = 91\nvalue = [15, 76]"] ;
1018 -> 1056 ;
1057 [label="education <= -0.584\ngini = 0.314\nsamples = 77\nvalue = [15, 62]"] ;
1056 -> 1057 ;
1058 [label="default <= 0.716\ngini = 0.473\nsamples = 13\nvalue = [5, 8]"] ;
1057 -> 1058 ;
1059 [label="duration <= 0.125\ngini = 0.444\nsamples = 12\nvalue = [4, 8]"] ;
1058 -> 1059 ;
1060 [label="gini = 0.0\nsamples = 1\nvalue = [1, 0]"] ;
1059 -> 1060 ;
1061 [label="age <= -0.53\ngini = 0.397\nsamples = 11\nvalue = [3, 8]"] ;
1059 -> 1061 ;
1062 [label="gini = 0.0\nsamples = 1\nvalue = [1, 0]"] ;
1061 -> 1062 ;
1063 [label="age <= 2.781\ngini = 0.32\nsamples = 10\nvalue = [2, 8]"] ;
1061 -> 1063 ;
1064 [label="gini = 0.0\nsamples = 6\nvalue = [0, 6]"] ;
1063 -> 1064 ;
1065 [label="duration <= 0.278\ngini = 0.5\nsamples = 4\nvalue = [2, 2]"] ;
1063 -> 1065 ;
1066 [label="gini = 0.0\nsamples = 2\nvalue = [0, 2]"] ;
1065 -> 1066 ;
1067 [label="gini = 0.0\nsamples = 2\nvalue = [2, 0]"] ;
1065 -> 1067 ;
1068 [label="gini = 0.0\nsamples = 1\nvalue = [1, 0]"] ;
1058 -> 1068 ;
1069 [label="cons.conf.idx <= 0.697\ngini = 0.264\nsamples = 64\nvalue = [10, 54]"] ;
1057 -> 1069 ;
1070 [label="duration <= 1.278\ngini = 0.208\nsamples = 51\nvalue = [6, 45]"] ;
1069 -> 1070 ;
1071 [label="day_of_week <= 1.07\ngini = 0.183\nsamples = 49\nvalue = [5, 44]"] ;
1070 -> 1071 ;
1072 [label="euribor3m <= -1.342\ngini = 0.133\nsamples = 42\nvalue = [3, 39]"] ;
1071 -> 1072 ;
1073 [label="gini = 0.0\nsamples = 29\nvalue = [0, 29]"] ;
1072 -> 1073 ;
1074 [label="age <= 0.334\ngini = 0.355\nsamples = 13\nvalue = [3, 10]"] ;
1072 -> 1074 ;
1075 [label="age <= -0.914\ngini = 0.198\nsamples = 9\nvalue = [1, 8]"] ;
1074 -> 1075 ;
1076 [label="duration <= 0.711\ngini = 0.444\nsamples = 3\nvalue = [1, 2]"] ;
1075 -> 1076 ;
1077 [label="gini = 0.0\nsamples = 1\nvalue = [1, 0]"] ;
1076 -> 1077 ;
1078 [label="gini = 0.0\nsamples = 2\nvalue = [0, 2]"] ;
1076 -> 1078 ;
1079 [label="gini = 0.0\nsamples = 6\nvalue = [0, 6]"] ;
1075 -> 1079 ;
1080 [label="euribor3m <= -1.276\ngini = 0.5\nsamples = 4\nvalue = [2, 2]"] ;
1074 -> 1080 ;
1081 [label="gini = 0.0\nsamples = 1\nvalue = [1, 0]"] ;
1080 -> 1081 ;
1082 [label="age <= 1.149\ngini = 0.444\nsamples = 3\nvalue = [1, 2]"] ;
1080 -> 1082 ;
1083 [label="gini = 0.0\nsamples = 1\nvalue = [1, 0]"] ;
1082 -> 1083 ;
1084 [label="gini = 0.0\nsamples = 2\nvalue = [0, 2]"] ;
1082 -> 1084 ;
1085 [label="age <= 0.814\ngini = 0.408\nsamples = 7\nvalue = [2, 5]"] ;
1071 -> 1085 ;
1086 [label="age <= -1.202\ngini = 0.278\nsamples = 6\nvalue = [1, 5]"] ;
1085 -> 1086 ;
1087 [label="duration <= 0.458\ngini = 0.5\nsamples = 2\nvalue = [1, 1]"] ;
1086 -> 1087 ;
1088 [label="gini = 0.0\nsamples = 1\nvalue = [0, 1]"] ;
1087 -> 1088 ;
1089 [label="gini = 0.0\nsamples = 1\nvalue = [1, 0]"] ;
1087 -> 1089 ;
1090 [label="gini = 0.0\nsamples = 4\nvalue = [0, 4]"] ;
1086 -> 1090 ;
1091 [label="gini = 0.0\nsamples = 1\nvalue = [1, 0]"] ;
1085 -> 1091 ;
1092 [label="duration <= 1.283\ngini = 0.5\nsamples = 2\nvalue = [1, 1]"] ;
1070 -> 1092 ;
1093 [label="gini = 0.0\nsamples = 1\nvalue = [1, 0]"] ;
1092 -> 1093 ;
1094 [label="gini = 0.0\nsamples = 1\nvalue = [0, 1]"] ;
1092 -> 1094 ;
1095 [label="euribor3m <= -1.859\ngini = 0.426\nsamples = 13\nvalue = [4, 9]"] ;
1069 -> 1095 ;
1096 [label="euribor3m <= -1.953\ngini = 0.375\nsamples = 12\nvalue = [3, 9]"] ;
1095 -> 1096 ;
1097 [label="age <= 3.213\ngini = 0.444\nsamples = 3\nvalue = [2, 1]"] ;
1096 -> 1097 ;
1098 [label="gini = 0.0\nsamples = 2\nvalue = [2, 0]"] ;
1097 -> 1098 ;
1099 [label="gini = 0.0\nsamples = 1\nvalue = [0, 1]"] ;
1097 -> 1099 ;
1100 [label="duration <= 0.226\ngini = 0.198\nsamples = 9\nvalue = [1, 8]"] ;
1096 -> 1100 ;
1101 [label="age <= -0.674\ngini = 0.5\nsamples = 2\nvalue = [1, 1]"] ;
1100 -> 1101 ;
1102 [label="gini = 0.0\nsamples = 1\nvalue = [1, 0]"] ;
1101 -> 1102 ;
1103 [label="gini = 0.0\nsamples = 1\nvalue = [0, 1]"] ;
1101 -> 1103 ;
1104 [label="gini = 0.0\nsamples = 7\nvalue = [0, 7]"] ;
1100 -> 1104 ;
1105 [label="gini = 0.0\nsamples = 1\nvalue = [1, 0]"] ;
1095 -> 1105 ;
1106 [label="gini = 0.0\nsamples = 14\nvalue = [0, 14]"] ;
1056 -> 1106 ;
1107 [label="age <= 0.622\ngini = 0.494\nsamples = 94\nvalue = [42, 52]"] ;
959 -> 1107 ;
1108 [label="default <= 0.716\ngini = 0.461\nsamples = 72\nvalue = [26, 46]"] ;
1107 -> 1108 ;
1109 [label="duration <= 1.27\ngini = 0.444\nsamples = 69\nvalue = [23, 46]"] ;
1108 -> 1109 ;
1110 [label="age <= -1.106\ngini = 0.43\nsamples = 67\nvalue = [21, 46]"] ;
1109 -> 1110 ;
1111 [label="age <= -1.298\ngini = 0.485\nsamples = 29\nvalue = [12, 17]"] ;
1110 -> 1111 ;
1112 [label="day_of_week <= 1.07\ngini = 0.32\nsamples = 15\nvalue = [3, 12]"] ;
1111 -> 1112 ;
1113 [label="euribor3m <= -0.883\ngini = 0.153\nsamples = 12\nvalue = [1, 11]"] ;
1112 -> 1113 ;
1114 [label="pdays <= -2.417\ngini = 0.5\nsamples = 2\nvalue = [1, 1]"] ;
1113 -> 1114 ;
1115 [label="gini = 0.0\nsamples = 1\nvalue = [0, 1]"] ;
1114 -> 1115 ;
1116 [label="gini = 0.0\nsamples = 1\nvalue = [1, 0]"] ;
1114 -> 1116 ;
1117 [label="gini = 0.0\nsamples = 10\nvalue = [0, 10]"] ;
1113 -> 1117 ;
1118 [label="housing <= 0.435\ngini = 0.444\nsamples = 3\nvalue = [2, 1]"] ;
1112 -> 1118 ;
1119 [label="gini = 0.0\nsamples = 2\nvalue = [2, 0]"] ;
1118 -> 1119 ;
1120 [label="gini = 0.0\nsamples = 1\nvalue = [0, 1]"] ;
1118 -> 1120 ;
1121 [label="duration <= 0.28\ngini = 0.459\nsamples = 14\nvalue = [9, 5]"] ;
1111 -> 1121 ;
1122 [label="gini = 0.0\nsamples = 2\nvalue = [0, 2]"] ;
1121 -> 1122 ;
1123 [label="previous <= 2.681\ngini = 0.375\nsamples = 12\nvalue = [9, 3]"] ;
1121 -> 1123 ;
1124 [label="job <= -0.897\ngini = 0.298\nsamples = 11\nvalue = [9, 2]"] ;
1123 -> 1124 ;
1125 [label="education <= 0.352\ngini = 0.444\nsamples = 6\nvalue = [4, 2]"] ;
1124 -> 1125 ;
1126 [label="gini = 0.0\nsamples = 1\nvalue = [0, 1]"] ;
1125 -> 1126 ;
1127 [label="duration <= 0.322\ngini = 0.32\nsamples = 5\nvalue = [4, 1]"] ;
1125 -> 1127 ;
1128 [label="gini = 0.0\nsamples = 1\nvalue = [0, 1]"] ;
1127 -> 1128 ;
1129 [label="gini = 0.0\nsamples = 4\nvalue = [4, 0]"] ;
1127 -> 1129 ;
1130 [label="gini = 0.0\nsamples = 5\nvalue = [5, 0]"] ;
1124 -> 1130 ;
1131 [label="gini = 0.0\nsamples = 1\nvalue = [0, 1]"] ;
1123 -> 1131 ;
1132 [label="duration <= 0.129\ngini = 0.361\nsamples = 38\nvalue = [9, 29]"] ;
1110 -> 1132 ;
1133 [label="marital <= 0.537\ngini = 0.444\nsamples = 3\nvalue = [2, 1]"] ;
1132 -> 1133 ;
1134 [label="gini = 0.0\nsamples = 2\nvalue = [2, 0]"] ;
1133 -> 1134 ;
1135 [label="gini = 0.0\nsamples = 1\nvalue = [0, 1]"] ;
1133 -> 1135 ;
1136 [label="day_of_week <= -0.361\ngini = 0.32\nsamples = 35\nvalue = [7, 28]"] ;
1132 -> 1136 ;
1137 [label="duration <= 0.879\ngini = 0.124\nsamples = 15\nvalue = [1, 14]"] ;
1136 -> 1137 ;
1138 [label="gini = 0.0\nsamples = 13\nvalue = [0, 13]"] ;
1137 -> 1138 ;
1139 [label="education <= 0.352\ngini = 0.5\nsamples = 2\nvalue = [1, 1]"] ;
1137 -> 1139 ;
1140 [label="gini = 0.0\nsamples = 1\nvalue = [0, 1]"] ;
1139 -> 1140 ;
1141 [label="gini = 0.0\nsamples = 1\nvalue = [1, 0]"] ;
1139 -> 1141 ;
1142 [label="housing <= -0.073\ngini = 0.42\nsamples = 20\nvalue = [6, 14]"] ;
1136 -> 1142 ;
1143 [label="gini = 0.0\nsamples = 6\nvalue = [0, 6]"] ;
1142 -> 1143 ;
1144 [label="day_of_week <= 1.07\ngini = 0.49\nsamples = 14\nvalue = [6, 8]"] ;
1142 -> 1144 ;
1145 [label="job <= 0.494\ngini = 0.496\nsamples = 11\nvalue = [6, 5]"] ;
1144 -> 1145 ;
1146 [label="poutcome <= -1.185\ngini = 0.469\nsamples = 8\nvalue = [3, 5]"] ;
1145 -> 1146 ;
1147 [label="gini = 0.0\nsamples = 1\nvalue = [1, 0]"] ;
1146 -> 1147 ;
1148 [label="marital <= -1.105\ngini = 0.408\nsamples = 7\nvalue = [2, 5]"] ;
1146 -> 1148 ;
1149 [label="gini = 0.0\nsamples = 1\nvalue = [1, 0]"] ;
1148 -> 1149 ;
1150 [label="marital <= 0.537\ngini = 0.278\nsamples = 6\nvalue = [1, 5]"] ;
1148 -> 1150 ;
1151 [label="gini = 0.0\nsamples = 3\nvalue = [0, 3]"] ;
1150 -> 1151 ;
1152 [label="education <= 0.352\ngini = 0.444\nsamples = 3\nvalue = [1, 2]"] ;
1150 -> 1152 ;
1153 [label="gini = 0.0\nsamples = 1\nvalue = [0, 1]"] ;
1152 -> 1153 ;
1154 [label="loan <= 0.929\ngini = 0.5\nsamples = 2\nvalue = [1, 1]"] ;
1152 -> 1154 ;
1155 [label="gini = 0.0\nsamples = 1\nvalue = [1, 0]"] ;
1154 -> 1155 ;
1156 [label="gini = 0.0\nsamples = 1\nvalue = [0, 1]"] ;
1154 -> 1156 ;
1157 [label="gini = 0.0\nsamples = 3\nvalue = [3, 0]"] ;
1145 -> 1157 ;
1158 [label="gini = 0.0\nsamples = 3\nvalue = [0, 3]"] ;
1144 -> 1158 ;
1159 [label="gini = 0.0\nsamples = 2\nvalue = [2, 0]"] ;
1109 -> 1159 ;
1160 [label="gini = 0.0\nsamples = 3\nvalue = [3, 0]"] ;
1108 -> 1160 ;
1161 [label="poutcome <= -1.185\ngini = 0.397\nsamples = 22\nvalue = [16, 6]"] ;
1107 -> 1161 ;
1162 [label="gini = 0.0\nsamples = 2\nvalue = [0, 2]"] ;
1161 -> 1162 ;
1163 [label="duration <= 0.86\ngini = 0.32\nsamples = 20\nvalue = [16, 4]"] ;
1161 -> 1163 ;
1164 [label="marital <= 0.537\ngini = 0.133\nsamples = 14\nvalue = [13, 1]"] ;
1163 -> 1164 ;
1165 [label="gini = 0.0\nsamples = 12\nvalue = [12, 0]"] ;
1164 -> 1165 ;
1166 [label="education <= 0.118\ngini = 0.5\nsamples = 2\nvalue = [1, 1]"] ;
1164 -> 1166 ;
1167 [label="gini = 0.0\nsamples = 1\nvalue = [1, 0]"] ;
1166 -> 1167 ;
1168 [label="gini = 0.0\nsamples = 1\nvalue = [0, 1]"] ;
1166 -> 1168 ;
1169 [label="job <= 0.633\ngini = 0.5\nsamples = 6\nvalue = [3, 3]"] ;
1163 -> 1169 ;
1170 [label="duration <= 0.885\ngini = 0.375\nsamples = 4\nvalue = [3, 1]"] ;
1169 -> 1170 ;
1171 [label="gini = 0.0\nsamples = 1\nvalue = [0, 1]"] ;
1170 -> 1171 ;
1172 [label="gini = 0.0\nsamples = 3\nvalue = [3, 0]"] ;
1170 -> 1172 ;
1173 [label="gini = 0.0\nsamples = 2\nvalue = [0, 2]"] ;
1169 -> 1173 ;
1174 [label="euribor3m <= -3.359\ngini = 0.499\nsamples = 61\nvalue = [32, 29]"] ;
938 -> 1174 ;
1175 [label="loan <= 0.929\ngini = 0.153\nsamples = 12\nvalue = [1, 11]"] ;
1174 -> 1175 ;
1176 [label="gini = 0.0\nsamples = 10\nvalue = [0, 10]"] ;
1175 -> 1176 ;
1177 [label="cons.conf.idx <= 1.366\ngini = 0.5\nsamples = 2\nvalue = [1, 1]"] ;
1175 -> 1177 ;
1178 [label="gini = 0.0\nsamples = 1\nvalue = [1, 0]"] ;
1177 -> 1178 ;
1179 [label="gini = 0.0\nsamples = 1\nvalue = [0, 1]"] ;
1177 -> 1179 ;
1180 [label="job <= 1.329\ngini = 0.465\nsamples = 49\nvalue = [31, 18]"] ;
1174 -> 1180 ;
1181 [label="month <= -0.315\ngini = 0.416\nsamples = 44\nvalue = [31, 13]"] ;
1180 -> 1181 ;
1182 [label="campaign <= 0.338\ngini = 0.486\nsamples = 12\nvalue = [5, 7]"] ;
1181 -> 1182 ;
1183 [label="euribor3m <= -1.691\ngini = 0.346\nsamples = 9\nvalue = [2, 7]"] ;
1182 -> 1183 ;
1184 [label="education <= -1.052\ngini = 0.219\nsamples = 8\nvalue = [1, 7]"] ;
1183 -> 1184 ;
1185 [label="gini = 0.0\nsamples = 1\nvalue = [1, 0]"] ;
1184 -> 1185 ;
1186 [label="gini = 0.0\nsamples = 7\nvalue = [0, 7]"] ;
1184 -> 1186 ;
1187 [label="gini = 0.0\nsamples = 1\nvalue = [1, 0]"] ;
1183 -> 1187 ;
1188 [label="gini = 0.0\nsamples = 3\nvalue = [3, 0]"] ;
1182 -> 1188 ;
1189 [label="loan <= 0.929\ngini = 0.305\nsamples = 32\nvalue = [26, 6]"] ;
1181 -> 1189 ;
1190 [label="age <= -0.242\ngini = 0.238\nsamples = 29\nvalue = [25, 4]"] ;
1189 -> 1190 ;
1191 [label="gini = 0.0\nsamples = 11\nvalue = [11, 0]"] ;
1190 -> 1191 ;
1192 [label="age <= 0.718\ngini = 0.346\nsamples = 18\nvalue = [14, 4]"] ;
1190 -> 1192 ;
1193 [label="euribor3m <= -3.22\ngini = 0.444\nsamples = 3\nvalue = [1, 2]"] ;
1192 -> 1193 ;
1194 [label="gini = 0.0\nsamples = 1\nvalue = [1, 0]"] ;
1193 -> 1194 ;
1195 [label="gini = 0.0\nsamples = 2\nvalue = [0, 2]"] ;
1193 -> 1195 ;
1196 [label="campaign <= -0.024\ngini = 0.231\nsamples = 15\nvalue = [13, 2]"] ;
1192 -> 1196 ;
1197 [label="job <= 0.216\ngini = 0.444\nsamples = 6\nvalue = [4, 2]"] ;
1196 -> 1197 ;
1198 [label="gini = 0.0\nsamples = 3\nvalue = [3, 0]"] ;
1197 -> 1198 ;
1199 [label="housing <= -0.073\ngini = 0.444\nsamples = 3\nvalue = [1, 2]"] ;
1197 -> 1199 ;
1200 [label="gini = 0.0\nsamples = 1\nvalue = [1, 0]"] ;
1199 -> 1200 ;
1201 [label="gini = 0.0\nsamples = 2\nvalue = [0, 2]"] ;
1199 -> 1201 ;
1202 [label="gini = 0.0\nsamples = 9\nvalue = [9, 0]"] ;
1196 -> 1202 ;
1203 [label="campaign <= -0.024\ngini = 0.444\nsamples = 3\nvalue = [1, 2]"] ;
1189 -> 1203 ;
1204 [label="gini = 0.0\nsamples = 2\nvalue = [0, 2]"] ;
1203 -> 1204 ;
1205 [label="gini = 0.0\nsamples = 1\nvalue = [1, 0]"] ;
1203 -> 1205 ;
1206 [label="gini = 0.0\nsamples = 5\nvalue = [0, 5]"] ;
1180 -> 1206 ;
1207 [label="loan <= 1.62\ngini = 0.32\nsamples = 10\nvalue = [8, 2]"] ;
937 -> 1207 ;
1208 [label="job <= 1.329\ngini = 0.198\nsamples = 9\nvalue = [8, 1]"] ;
1207 -> 1208 ;
1209 [label="gini = 0.0\nsamples = 8\nvalue = [8, 0]"] ;
1208 -> 1209 ;
1210 [label="gini = 0.0\nsamples = 1\nvalue = [0, 1]"] ;
1208 -> 1210 ;
1211 [label="gini = 0.0\nsamples = 1\nvalue = [0, 1]"] ;
1207 -> 1211 ;
1212 [label="day_of_week <= -1.077\ngini = 0.364\nsamples = 163\nvalue = [39, 124]"] ;
936 -> 1212 ;
1213 [label="previous <= 2.681\ngini = 0.471\nsamples = 29\nvalue = [11, 18]"] ;
1212 -> 1213 ;
1214 [label="age <= 1.101\ngini = 0.499\nsamples = 23\nvalue = [11, 12]"] ;
1213 -> 1214 ;
1215 [label="euribor3m <= -2.325\ngini = 0.457\nsamples = 17\nvalue = [6, 11]"] ;
1214 -> 1215 ;
1216 [label="gini = 0.0\nsamples = 8\nvalue = [0, 8]"] ;
1215 -> 1216 ;
1217 [label="age <= 0.046\ngini = 0.444\nsamples = 9\nvalue = [6, 3]"] ;
1215 -> 1217 ;
1218 [label="campaign <= -0.024\ngini = 0.245\nsamples = 7\nvalue = [6, 1]"] ;
1217 -> 1218 ;
1219 [label="gini = 0.0\nsamples = 6\nvalue = [6, 0]"] ;
1218 -> 1219 ;
1220 [label="gini = 0.0\nsamples = 1\nvalue = [0, 1]"] ;
1218 -> 1220 ;
1221 [label="gini = 0.0\nsamples = 2\nvalue = [0, 2]"] ;
1217 -> 1221 ;
1222 [label="education <= 1.288\ngini = 0.278\nsamples = 6\nvalue = [5, 1]"] ;
1214 -> 1222 ;
1223 [label="gini = 0.0\nsamples = 5\nvalue = [5, 0]"] ;
1222 -> 1223 ;
1224 [label="gini = 0.0\nsamples = 1\nvalue = [0, 1]"] ;
1222 -> 1224 ;
1225 [label="gini = 0.0\nsamples = 6\nvalue = [0, 6]"] ;
1213 -> 1225 ;
1226 [label="education <= 0.82\ngini = 0.331\nsamples = 134\nvalue = [28, 106]"] ;
1212 -> 1226 ;
1227 [label="month <= 0.978\ngini = 0.213\nsamples = 66\nvalue = [8, 58]"] ;
1226 -> 1227 ;
1228 [label="age <= -1.394\ngini = 0.117\nsamples = 48\nvalue = [3, 45]"] ;
1227 -> 1228 ;
1229 [label="duration <= 1.915\ngini = 0.408\nsamples = 7\nvalue = [2, 5]"] ;
1228 -> 1229 ;
1230 [label="gini = 0.0\nsamples = 2\nvalue = [2, 0]"] ;
1229 -> 1230 ;
1231 [label="gini = 0.0\nsamples = 5\nvalue = [0, 5]"] ;
1229 -> 1231 ;
1232 [label="month <= 0.116\ngini = 0.048\nsamples = 41\nvalue = [1, 40]"] ;
1228 -> 1232 ;
1233 [label="gini = 0.0\nsamples = 34\nvalue = [0, 34]"] ;
1232 -> 1233 ;
1234 [label="duration <= 1.603\ngini = 0.245\nsamples = 7\nvalue = [1, 6]"] ;
1232 -> 1234 ;
1235 [label="previous <= 0.661\ngini = 0.444\nsamples = 3\nvalue = [1, 2]"] ;
1234 -> 1235 ;
1236 [label="gini = 0.0\nsamples = 1\nvalue = [1, 0]"] ;
1235 -> 1236 ;
1237 [label="gini = 0.0\nsamples = 2\nvalue = [0, 2]"] ;
1235 -> 1237 ;
1238 [label="gini = 0.0\nsamples = 4\nvalue = [0, 4]"] ;
1234 -> 1238 ;
1239 [label="age <= -0.434\ngini = 0.401\nsamples = 18\nvalue = [5, 13]"] ;
1227 -> 1239 ;
1240 [label="gini = 0.0\nsamples = 9\nvalue = [0, 9]"] ;
1239 -> 1240 ;
1241 [label="duration <= 2.099\ngini = 0.494\nsamples = 9\nvalue = [5, 4]"] ;
1239 -> 1241 ;
1242 [label="gini = 0.0\nsamples = 3\nvalue = [0, 3]"] ;
1241 -> 1242 ;
